// This file is computer-generated by OpTC 
 // (TODO: add creating command line here) 
 // (TODO: print creation date here ) 

 // ONNX model: 
 // produced by (TODO: ) 
 // ONNX IR version: TODO: opset 
 // Model documentation: 
 /* 

 */ 

 #include <float.h> 
 #include <math.h> 
 #include <stdbool.h> 
 #include <stdint.h> 
 #include <string.h> 
 #include "tcn.simplified.h"

 #define MAX(X,Y) ( X > Y ? X : Y) 
 #define MIN(X,Y) ( X < Y ? X : Y) 
 #define CLIP(X,U,L) ( MAX(MIN(X,U),L) )
 #define CLIP_RELUX(X,L) ( MAX(MIN(X,L), 0) )

static const float tensor_conv1_weight[32][14][1][3] = {
{
{
{
0.1108664721250534, -0.029987432062625885, -0.011059986427426338 },
},
{
{
-0.06978655606508255, -0.027608277276158333, -0.212077796459198 },
},
{
{
0.06538437306880951, -0.11685491353273392, 0.016105571761727333 },
},
{
{
-0.032749585807323456, -0.01109534502029419, -0.061544258147478104 },
},
{
{
-0.09937386214733124, -0.045306891202926636, 0.004322844557464123 },
},
{
{
-0.07424767315387726, -0.07221642136573792, 0.10453731566667557 },
},
{
{
-0.014956852421164513, 0.11981905996799469, 0.02142808772623539 },
},
{
{
0.12954208254814148, -0.039998579770326614, -0.05215286836028099 },
},
{
{
0.078731469810009, -0.14337289333343506, 0.0010117186466231942 },
},
{
{
-0.0551375187933445, 0.05694379657506943, 0.026785528287291527 },
},
{
{
0.036445751786231995, 0.04456907883286476, -0.052071936428546906 },
},
{
{
0.20101119577884674, 0.12729211151599884, 0.28808075189590454 },
},
{
{
0.09866200387477875, 0.0032851051073521376, 0.10054228454828262 },
},
{
{
-0.0343022495508194, -0.10778826475143433, -0.6345663070678711 },
},
},
{
{
{
-0.12232851982116699, 0.1717587113380432, -0.0761202946305275 },
},
{
{
-0.08722145110368729, 0.026020873337984085, -0.05726415663957596 },
},
{
{
-0.16767682135105133, 0.03286992758512497, 0.07022508233785629 },
},
{
{
-0.108770951628685, -0.07413676381111145, 0.006832439452409744 },
},
{
{
0.13551713526248932, 0.062191884964704514, -0.15041424334049225 },
},
{
{
-0.04489590972661972, -0.07680874317884445, 0.05385923758149147 },
},
{
{
-0.14376544952392578, -0.21736067533493042, -0.12948349118232727 },
},
{
{
-0.09405271708965302, -0.07960087060928345, 0.1607128083705902 },
},
{
{
0.10508109629154205, -0.036517247557640076, 0.1555442214012146 },
},
{
{
0.06098014861345291, -0.04534517973661423, -0.044224414974451065 },
},
{
{
0.04091199114918709, 0.25519317388534546, 0.20565305650234222 },
},
{
{
0.2754001319408417, 0.20661242306232452, 0.2351631373167038 },
},
{
{
0.09479378908872604, 0.14804565906524658, 0.12158215045928955 },
},
{
{
0.12860620021820068, 0.25987696647644043, 0.26346442103385925 },
},
},
{
{
{
0.01135659497231245, 0.07365551590919495, -0.0508606918156147 },
},
{
{
0.00444647204130888, 0.002693320857360959, 0.023555658757686615 },
},
{
{
0.009409800171852112, 0.002505841199308634, -0.013714899308979511 },
},
{
{
0.03194202855229378, -0.08748309314250946, 0.11714721471071243 },
},
{
{
0.02905305288732052, -0.1475246101617813, 0.18879343569278717 },
},
{
{
-0.07199329882860184, -0.01899191364645958, -0.017989706248044968 },
},
{
{
-0.0999310165643692, 0.18668073415756226, -0.1337732970714569 },
},
{
{
0.12497631460428238, -0.09758562594652176, 0.11622912436723709 },
},
{
{
-0.0013060575583949685, 0.06237738952040672, 0.05159236490726471 },
},
{
{
-0.08043346554040909, 0.05966264754533768, -0.07521021366119385 },
},
{
{
-0.13426902890205383, -0.1485973596572876, -0.17125913500785828 },
},
{
{
-0.12443388253450394, 0.15540875494480133, -0.0300262663513422 },
},
{
{
-0.016081083565950394, -0.06434150040149689, -0.40054601430892944 },
},
{
{
0.18930186331272125, -0.04926818609237671, -0.4768983721733093 },
},
},
{
{
{
0.01915520429611206, -0.06878849864006042, -0.12165176123380661 },
},
{
{
0.029719343408942223, 0.006300723645836115, 0.14271403849124908 },
},
{
{
-0.05861964076757431, -0.14863106608390808, -0.0846826583147049 },
},
{
{
0.005117577966302633, -0.02361334301531315, -0.1278461366891861 },
},
{
{
0.06049012765288353, 0.014411124400794506, -0.003981429617851973 },
},
{
{
-0.15078231692314148, -0.04216554015874863, 0.11825812608003616 },
},
{
{
-0.0653899535536766, 0.05549873784184456, 0.14378590881824493 },
},
{
{
-0.13266582787036896, 0.09932641685009003, -0.06933446228504181 },
},
{
{
-0.019313616678118706, -0.13100109994411469, -0.08493705093860626 },
},
{
{
-0.11651697009801865, -0.07409631460905075, 0.04144652187824249 },
},
{
{
0.005331449210643768, -0.0701015293598175, 0.11852841079235077 },
},
{
{
-0.14762121438980103, -0.05929833650588989, -0.13637618720531464 },
},
{
{
-0.02376163937151432, -0.037250008434057236, -0.09883857518434525 },
},
{
{
-0.09624989330768585, 0.03369709476828575, 0.13538768887519836 },
},
},
{
{
{
-0.04177558794617653, 0.259225070476532, -0.15013906359672546 },
},
{
{
-0.16662003099918365, 0.1288948953151703, -1.1291557550430298 },
},
{
{
0.1156243160367012, -0.020288506522774696, -0.22896355390548706 },
},
{
{
-0.07640772312879562, 0.07297594100236893, -0.22231091558933258 },
},
{
{
0.06207617372274399, -0.011537120677530766, 0.4856816828250885 },
},
{
{
-0.008106783963739872, 0.4138735234737396, -0.1839308887720108 },
},
{
{
-0.7045177221298218, 1.4290471076965332, -1.0894498825073242 },
},
{
{
0.07571648806333542, 0.048756882548332214, -0.1648491472005844 },
},
{
{
-0.19979600608348846, 0.03773905336856842, -0.40912333130836487 },
},
{
{
-0.06341572850942612, 0.30892056226730347, -0.6491503715515137 },
},
{
{
0.21670402586460114, 0.7703627943992615, -1.0475493669509888 },
},
{
{
0.2800179719924927, 0.9351161122322083, -0.9318851232528687 },
},
{
{
0.29480716586112976, 0.7857999801635742, -1.118977427482605 },
},
{
{
0.14513511955738068, 0.6286234259605408, -1.2063363790512085 },
},
},
{
{
{
-0.006408756598830223, -0.06271370500326157, 0.0019875334110111 },
},
{
{
-0.03979983180761337, 0.039090391248464584, -0.0921483114361763 },
},
{
{
0.09398013353347778, -0.019073858857154846, 0.012359349057078362 },
},
{
{
0.1456199586391449, -0.029552698135375977, 0.059357739984989166 },
},
{
{
-0.11140795797109604, 0.10611999779939651, 0.05169817805290222 },
},
{
{
0.03792092576622963, 0.077372245490551, 0.11144360154867172 },
},
{
{
0.023414913564920425, -0.1251879781484604, 0.08501913398504257 },
},
{
{
-0.010681236162781715, -0.08344538509845734, -0.11797652393579483 },
},
{
{
0.1448950171470642, -0.02450443245470524, 0.07549804449081421 },
},
{
{
-0.13715945184230804, 0.13784761726856232, -0.04103662818670273 },
},
{
{
-0.015342975035309792, -0.11870475113391876, -0.03629001975059509 },
},
{
{
0.09998820722103119, 0.08151201903820038, -0.0071699125692248344 },
},
{
{
0.46236562728881836, 0.46642187237739563, 0.4624071717262268 },
},
{
{
0.4281086027622223, 0.2883274257183075, 0.47591888904571533 },
},
},
{
{
{
0.23966512084007263, 0.24867412447929382, -0.024860640987753868 },
},
{
{
-0.1277076005935669, 0.05045163631439209, -0.011415354907512665 },
},
{
{
-0.008239182643592358, 0.05287159979343414, -0.0412413664162159 },
},
{
{
-0.23904436826705933, -0.08692468702793121, -0.2768513858318329 },
},
{
{
-0.06948065757751465, -0.011708270758390427, -0.328762412071228 },
},
{
{
-0.08730234950780869, 0.017745230346918106, 0.2097458839416504 },
},
{
{
-0.096873439848423, 0.11153839528560638, 0.024464981630444527 },
},
{
{
-0.1323305070400238, -0.04985678195953369, 0.03456033766269684 },
},
{
{
-0.31425341963768005, -0.17098979651927948, -0.0244777612388134 },
},
{
{
-0.04925746098160744, 0.011885927990078926, -0.08803275972604752 },
},
{
{
-0.10315866768360138, 0.0769670307636261, 0.06130152940750122 },
},
{
{
-0.03415382653474808, -0.05521982163190842, -0.053103793412446976 },
},
{
{
-0.04081428050994873, 0.0578681081533432, 0.20682954788208008 },
},
{
{
-0.06778275221586227, 0.11930748075246811, 0.02495439164340496 },
},
},
{
{
{
0.07524962723255157, 0.08611073344945908, 0.1065305769443512 },
},
{
{
-0.07265759259462357, -0.07070370018482208, -0.06058897078037262 },
},
{
{
0.005515857599675655, -0.08676687628030777, 0.054842427372932434 },
},
{
{
-0.1450657993555069, 0.03958422318100929, -0.20040813088417053 },
},
{
{
-0.014862077310681343, -0.06507539749145508, -0.13095878064632416 },
},
{
{
-0.11735746264457703, 0.044519972056150436, 0.07498589903116226 },
},
{
{
-0.045641738921403885, -0.10245545208454132, 0.043029967695474625 },
},
{
{
0.0837799459695816, -0.06273604929447174, -0.03890373185276985 },
},
{
{
0.05001671239733696, -0.015050825662910938, -0.011301868595182896 },
},
{
{
-0.08504387736320496, 0.05359359830617905, -0.09438490122556686 },
},
{
{
0.3134239614009857, 0.4189210832118988, 0.7464555501937866 },
},
{
{
0.19246290624141693, 0.05863082781434059, 0.2501944899559021 },
},
{
{
-0.28478074073791504, -0.18738387525081635, -0.18012312054634094 },
},
{
{
-0.08172550797462463, -0.19758275151252747, -0.308059960603714 },
},
},
{
{
{
0.05967239290475845, -0.012929084710776806, -0.04420286417007446 },
},
{
{
-0.0546010360121727, 0.12021475285291672, 0.18138644099235535 },
},
{
{
-0.00796172209084034, 0.027051309123635292, -0.0418274849653244 },
},
{
{
-0.07534089684486389, -0.025502657517790794, 0.04784064739942551 },
},
{
{
0.1506977677345276, -0.026119595393538475, -0.1887064427137375 },
},
{
{
0.03781074658036232, -0.085197314620018, 0.0032906709238886833 },
},
{
{
-0.2693935036659241, -0.1589190512895584, 0.28648969531059265 },
},
{
{
-0.05307243764400482, -0.04982365667819977, 0.14772304892539978 },
},
{
{
-0.16331499814987183, 0.04034113138914108, 0.07243140786886215 },
},
{
{
0.029991390183568, -0.0689641609787941, 0.02481493167579174 },
},
{
{
-0.26491084694862366, 0.044980380684137344, 0.2134140431880951 },
},
{
{
0.23552465438842773, 0.2726266086101532, 0.7652579545974731 },
},
{
{
0.5522685050964355, 0.718764066696167, 0.880440354347229 },
},
{
{
-0.3469611406326294, -0.5738692283630371, -0.7563710808753967 },
},
},
{
{
{
0.039792027324438095, 0.11149174720048904, -0.5725095272064209 },
},
{
{
0.09788554906845093, 0.2184077948331833, -1.3682293891906738 },
},
{
{
-0.03097790852189064, 0.03545268997550011, 0.42806538939476013 },
},
{
{
0.019294388592243195, 0.014660274609923363, -0.6784178018569946 },
},
{
{
0.04809628054499626, -0.06772325187921524, 0.6865402460098267 },
},
{
{
0.11539389193058014, 0.07369208335876465, -0.20890608429908752 },
},
{
{
0.41372981667518616, 1.2474197149276733, -1.018718957901001 },
},
{
{
-0.10212156176567078, -0.0976189374923706, -0.3105282485485077 },
},
{
{
0.003910636994987726, -0.04580831155180931, -0.7096816301345825 },
},
{
{
0.007196826860308647, 0.09964200109243393, -0.897732675075531 },
},
{
{
0.44319653511047363, 0.9240391254425049, -1.5064855813980103 },
},
{
{
0.23443403840065002, 0.8708845973014832, -0.9819573163986206 },
},
{
{
0.11018557101488113, 0.5809237360954285, -1.1614562273025513 },
},
{
{
0.14151039719581604, 0.5554491281509399, -0.9112905859947205 },
},
},
{
{
{
-0.010771927423775196, 0.0845281258225441, -0.029444506391882896 },
},
{
{
0.162200465798378, 0.1613692343235016, 0.055235687643289566 },
},
{
{
-0.08390673995018005, 0.0007224157452583313, 0.02086338959634304 },
},
{
{
0.05938886106014252, -0.012248705141246319, 0.07688391208648682 },
},
{
{
0.09352696686983109, -0.056511811912059784, 0.09529151022434235 },
},
{
{
-0.039691146463155746, -0.1140054315328598, 0.12472985684871674 },
},
{
{
0.2035694569349289, -0.10991992056369781, 0.16886921226978302 },
},
{
{
0.07007312029600143, -0.0367712676525116, -0.09512567520141602 },
},
{
{
-0.16192594170570374, 0.05705713853240013, 0.009606895036995411 },
},
{
{
0.05682326480746269, -0.07636191695928574, -0.05845080688595772 },
},
{
{
-0.21902576088905334, -0.2109793722629547, -0.04392239823937416 },
},
{
{
0.45385056734085083, 0.3679584264755249, 0.5292723774909973 },
},
{
{
0.17604106664657593, 0.3826482892036438, 0.21115578711032867 },
},
{
{
0.26692453026771545, 0.07092244923114777, 0.2108488529920578 },
},
},
{
{
{
0.049698758870363235, -0.10944514721632004, 0.05036303400993347 },
},
{
{
0.09103088080883026, -0.10607712715864182, 0.12285258620977402 },
},
{
{
0.051313042640686035, -0.06898938119411469, -0.06744053959846497 },
},
{
{
-0.11723429709672928, 0.09931109845638275, 0.10562306642532349 },
},
{
{
0.1395307332277298, 0.010165892541408539, -0.06928637623786926 },
},
{
{
0.047237373888492584, -0.05943142622709274, 0.015442411415278912 },
},
{
{
-0.06351828575134277, -0.11339306086301804, 0.1410164088010788 },
},
{
{
-0.03660647198557854, -0.09664901345968246, 0.11029211431741714 },
},
{
{
-0.0264845360070467, -0.1534753143787384, 0.039557021111249924 },
},
{
{
0.12194650620222092, -0.027095621451735497, -0.12108991295099258 },
},
{
{
0.4919067621231079, 0.5070750713348389, 0.6203495860099792 },
},
{
{
-0.10616850852966309, -0.00540457759052515, 0.00789359025657177 },
},
{
{
0.16290728747844696, 0.015394773334264755, 0.17891372740268707 },
},
{
{
0.11257646977901459, 0.04234001040458679, 0.029110241681337357 },
},
},
{
{
{
-0.10076658427715302, -0.09677208960056305, 0.046168215572834015 },
},
{
{
0.07818528264760971, 0.25070956349372864, 0.10122805088758469 },
},
{
{
0.0018140774918720126, 0.0696028545498848, -0.06615418195724487 },
},
{
{
0.017768004909157753, 0.09879469871520996, 0.008113959804177284 },
},
{
{
-0.021929416805505753, 0.026792120188474655, -0.014940586872398853 },
},
{
{
-0.012650859542191029, 0.032712869346141815, -0.012317086569964886 },
},
{
{
-0.18209315836429596, 0.2506754994392395, 0.19927483797073364 },
},
{
{
0.0008437129436060786, -0.06294035911560059, 0.13046471774578094 },
},
{
{
-0.06029162183403969, -0.008675891906023026, -0.050803761929273605 },
},
{
{
0.13515597581863403, 0.012895649299025536, -0.08821448683738708 },
},
{
{
0.4468599855899811, 1.1174579858779907, 1.0825743675231934 },
},
{
{
-0.7370573282241821, -0.49590620398521423, -0.6304367184638977 },
},
{
{
-0.8633133172988892, -0.6400368213653564, -0.8979179263114929 },
},
{
{
0.2960304617881775, 0.5381355285644531, 0.38377174735069275 },
},
},
{
{
{
0.07700711488723755, -0.03794718533754349, -0.035702358931303024 },
},
{
{
-0.04933907464146614, -0.07962973415851593, -0.027242839336395264 },
},
{
{
0.08479878306388855, 0.05845515429973602, -0.051833976060152054 },
},
{
{
0.045663680881261826, 0.022414740175008774, -0.0744517594575882 },
},
{
{
-0.0726126879453659, 0.00827992707490921, -0.10842936486005783 },
},
{
{
0.05369438976049423, -0.046221088618040085, -0.15331122279167175 },
},
{
{
-0.09127639979124069, 0.03729764744639397, 0.03779754042625427 },
},
{
{
0.11527833342552185, 0.07755327969789505, 0.06454966962337494 },
},
{
{
0.07972874492406845, 0.06923174858093262, -0.05789937451481819 },
},
{
{
-0.09805598109960556, 0.06567157804965973, 0.15518799424171448 },
},
{
{
0.04619891196489334, 0.2815592885017395, 0.26827195286750793 },
},
{
{
0.14559686183929443, 0.05577079579234123, 0.2628108859062195 },
},
{
{
-0.01556186843663454, 0.03292698785662651, 0.16291502118110657 },
},
{
{
0.36829009652137756, 0.3584382236003876, 0.5853965282440186 },
},
},
{
{
{
0.10364149510860443, -0.10408731549978256, 0.02142193168401718 },
},
{
{
-0.1342070996761322, -0.07354476302862167, 0.10512520372867584 },
},
{
{
-0.004918715916574001, -0.03346308693289757, -0.0029508036095649004 },
},
{
{
-0.14463725686073303, -0.15138155221939087, -0.01995902694761753 },
},
{
{
0.0238856989890337, -0.13107238709926605, 0.05343291535973549 },
},
{
{
-0.0846078097820282, -0.05468848720192909, -0.024262338876724243 },
},
{
{
-0.1197267696261406, -0.009829013608396053, 0.056317154318094254 },
},
{
{
-0.012949861586093903, 0.14671112596988678, 0.126362606883049 },
},
{
{
-0.1173023134469986, -0.059413302689790726, 0.07594554126262665 },
},
{
{
0.06109375134110451, 0.019224079325795174, -0.06256940215826035 },
},
{
{
-0.1928757280111313, -0.1611459106206894, 0.028703929856419563 },
},
{
{
0.10994374752044678, 0.16618052124977112, 0.00040059463935904205 },
},
{
{
0.2525615990161896, 0.10950212180614471, 0.1366286724805832 },
},
{
{
0.4042477309703827, 0.5163658857345581, 0.6224499344825745 },
},
},
{
{
{
-0.10955973714590073, 0.09587232023477554, -0.06486768275499344 },
},
{
{
0.19915266335010529, 0.14183661341667175, 0.15067650377750397 },
},
{
{
-0.012428033165633678, 0.10089027136564255, -0.052439115941524506 },
},
{
{
-0.01195483561605215, -0.01818082481622696, 0.11993302404880524 },
},
{
{
0.0889270082116127, -0.04168129339814186, -0.15647807717323303 },
},
{
{
0.03681227192282677, -0.060526043176651, 0.01953064650297165 },
},
{
{
-0.00964861735701561, 0.14286768436431885, 0.3231770992279053 },
},
{
{
-0.11846664547920227, 0.14421622455120087, -0.013620060868561268 },
},
{
{
0.0669766217470169, -0.18063442409038544, 0.14296436309814453 },
},
{
{
-0.02008887566626072, -0.031920723617076874, 0.032531578093767166 },
},
{
{
-0.09750126302242279, -0.23984377086162567, -0.4679982364177704 },
},
{
{
0.23161573708057404, 0.4557725787162781, 0.43882596492767334 },
},
{
{
-0.25078216195106506, -0.4231508672237396, -0.48668578267097473 },
},
{
{
0.15728335082530975, 0.2664911150932312, 0.15596623718738556 },
},
},
{
{
{
0.0364990197122097, 0.12065434455871582, 0.10367586463689804 },
},
{
{
0.16016905009746552, -0.11384225636720657, -0.09227964282035828 },
},
{
{
0.10374937206506729, -0.2958940863609314, 0.22603856027126312 },
},
{
{
-0.2824675142765045, -0.16077879071235657, -0.050203289836645126 },
},
{
{
-0.15885117650032043, -0.05613890662789345, -0.13459588587284088 },
},
{
{
0.10088212043046951, -0.05354861170053482, 0.04149807617068291 },
},
{
{
0.2053791731595993, 0.09430605173110962, 0.2825131118297577 },
},
{
{
0.025292089208960533, -0.06551508605480194, -0.0692637488245964 },
},
{
{
-0.14022600650787354, -0.2576847970485687, -0.22329682111740112 },
},
{
{
-0.07563728839159012, 0.0006103263585828245, -0.04117489978671074 },
},
{
{
0.06812272220849991, -0.1470242589712143, 0.14936429262161255 },
},
{
{
0.043429285287857056, -0.17704202234745026, 0.13750208914279938 },
},
{
{
-0.0008886579307727516, -0.05286907032132149, -0.055307935923337936 },
},
{
{
0.03431984782218933, -0.11117304861545563, 0.14314113557338715 },
},
},
{
{
{
-0.04958954080939293, 0.027958381921052933, 0.003191368654370308 },
},
{
{
0.047042183578014374, 0.12636680901050568, -0.026584850624203682 },
},
{
{
-0.14406363666057587, 0.08859387040138245, 0.028056083247065544 },
},
{
{
0.07640928030014038, -0.09012062847614288, 0.07862105220556259 },
},
{
{
0.08572671562433243, -0.0837407261133194, 0.08139541000127792 },
},
{
{
-0.03500084951519966, 0.04451194033026695, 0.08926871418952942 },
},
{
{
0.14589416980743408, 0.1143346056342125, -0.04648853838443756 },
},
{
{
-0.09184745699167252, 0.09168001264333725, -0.1011665016412735 },
},
{
{
0.016338525339961052, -0.06194077059626579, 0.06625443696975708 },
},
{
{
-0.10380648821592331, -0.013620390556752682, 0.07628803700208664 },
},
{
{
0.2523304522037506, 0.42116203904151917, 0.6426364779472351 },
},
{
{
0.01441476121544838, 0.09563302993774414, 0.2676486074924469 },
},
{
{
-0.18639948964118958, -0.18857617676258087, -0.214622363448143 },
},
{
{
-0.03029392473399639, 0.08557097613811493, 0.18421810865402222 },
},
},
{
{
{
0.04198642075061798, 0.03916975483298302, 0.013385288417339325 },
},
{
{
-0.11879540979862213, 0.1266409158706665, 0.004248663317412138 },
},
{
{
0.030119404196739197, 0.1262061595916748, -0.06285841017961502 },
},
{
{
-0.047696661204099655, -0.0327669233083725, -0.0040137083269655704 },
},
{
{
-0.015856245532631874, 0.0033486383035779, 0.10098896920681 },
},
{
{
0.14128251373767853, -0.04063167795538902, -0.09305225312709808 },
},
{
{
0.19965767860412598, -0.11286453902721405, 0.11677193641662598 },
},
{
{
0.04732990637421608, -0.0412207692861557, -0.05879579856991768 },
},
{
{
-0.0493258461356163, 0.1279214322566986, 0.03557439148426056 },
},
{
{
-0.08690330386161804, -0.10925666242837906, 0.15060016512870789 },
},
{
{
0.519055962562561, 0.39625880122184753, 0.7803322076797485 },
},
{
{
-0.019793203100562096, 0.12120714783668518, 0.3171522319316864 },
},
{
{
-0.10703624039888382, -0.16302290558815002, 0.003677257802337408 },
},
{
{
-0.11325346678495407, -0.022148720920085907, -0.27592983841896057 },
},
},
{
{
{
0.02476884238421917, 0.03456832468509674, -0.046578191220760345 },
},
{
{
0.10079526156187057, -0.11132024228572845, -0.046323373913764954 },
},
{
{
-0.1488482803106308, -0.009916767477989197, 0.11351470649242401 },
},
{
{
-0.13034887611865997, -0.06106499210000038, -0.15002484619617462 },
},
{
{
-0.10829798877239227, 0.02353941649198532, 0.008562295697629452 },
},
{
{
0.09420212358236313, -0.07251947373151779, -0.07338918000459671 },
},
{
{
0.08174137771129608, -0.04433056339621544, -0.11071605980396271 },
},
{
{
-0.11236298084259033, -0.04779514670372009, 0.119377501308918 },
},
{
{
-0.14386793971061707, 0.11754889041185379, 0.09933816641569138 },
},
{
{
-0.04170101135969162, -0.07784595340490341, -0.03471139818429947 },
},
{
{
-0.12278572469949722, 0.027468955144286156, 0.04182909056544304 },
},
{
{
0.09835042804479599, -0.1519051343202591, -0.08917783945798874 },
},
{
{
-0.15057682991027832, 0.011899995617568493, -0.1531246453523636 },
},
{
{
-0.04028986394405365, -0.05826972424983978, -0.0669986754655838 },
},
},
{
{
{
0.06414313614368439, 0.2127804011106491, -0.3197753131389618 },
},
{
{
-0.4988187849521637, 0.15027764439582825, -0.776149332523346 },
},
{
{
-0.008285798132419586, 0.008132687769830227, 0.023272350430488586 },
},
{
{
-0.012258844450116158, 0.06755325943231583, -0.40131431818008423 },
},
{
{
0.16223077476024628, 0.0214735958725214, 0.6468355655670166 },
},
{
{
-0.3993395268917084, -0.10320327430963516, 5.061975753051229e-05 },
},
{
{
0.13055700063705444, 1.0808101892471313, -0.9905787706375122 },
},
{
{
-0.025472840294241905, 0.1950131207704544, -0.0826818123459816 },
},
{
{
0.28748655319213867, 0.11821776628494263, -0.4288659393787384 },
},
{
{
-0.030150795355439186, -0.03484104201197624, -0.5841776132583618 },
},
{
{
1.1927146911621094, 1.8342392444610596, -1.2072309255599976 },
},
{
{
-0.7669587731361389, -0.07278508692979813, -0.903910219669342 },
},
{
{
-0.784125804901123, -0.20638811588287354, -1.1567425727844238 },
},
{
{
-0.5965422987937927, 0.14597442746162415, -1.1418018341064453 },
},
},
{
{
{
-0.08900611102581024, -0.03896532580256462, -0.06728798151016235 },
},
{
{
0.01914527267217636, 0.09915125370025635, 0.1644858866930008 },
},
{
{
0.10075143724679947, -0.03207235783338547, -0.02161901630461216 },
},
{
{
0.032913777977228165, -0.03996730223298073, 0.047044627368450165 },
},
{
{
0.025445790961384773, 0.057983025908470154, 0.12477567791938782 },
},
{
{
-0.022082988172769547, 0.06698105484247208, 0.006302904337644577 },
},
{
{
0.004555068910121918, -0.05481492355465889, -0.044945742934942245 },
},
{
{
-0.05315104499459267, 0.018878059461712837, -0.08835908770561218 },
},
{
{
-0.03916560858488083, -0.10845459252595901, 0.07525582611560822 },
},
{
{
-0.004085186868906021, -0.05230683088302612, -0.0061343759298324585 },
},
{
{
0.012469377368688583, -0.1822391152381897, 0.15064997971057892 },
},
{
{
-0.3910485506057739, -0.1917956918478012, -0.445317804813385 },
},
{
{
-0.031119462102651596, 0.056521449238061905, -0.040908463299274445 },
},
{
{
0.04061533138155937, 0.11673347651958466, -0.28454267978668213 },
},
},
{
{
{
-0.013119496405124664, -0.13158422708511353, -0.06777373701334 },
},
{
{
-0.030807895585894585, -0.09766871482133865, -0.004880043677985668 },
},
{
{
-0.052343472838401794, 0.050460562109947205, 0.04123200103640556 },
},
{
{
0.09574184566736221, 0.056834928691387177, -0.0014065122231841087 },
},
{
{
-0.01226728968322277, 0.15434330701828003, 0.08440592885017395 },
},
{
{
0.04292353615164757, 0.12012643367052078, -0.09040459245443344 },
},
{
{
0.037165459245443344, -0.20603832602500916, -0.14594513177871704 },
},
{
{
-0.12031585723161697, 0.16245467960834503, -0.037283577024936676 },
},
{
{
0.03474299609661102, 0.039435986429452896, -0.03378508239984512 },
},
{
{
0.01695423573255539, 0.020581047981977463, 0.0927296131849289 },
},
{
{
0.033488888293504715, -0.0886555165052414, 0.03645695745944977 },
},
{
{
0.5530850887298584, 0.6111857295036316, 0.7499833106994629 },
},
{
{
-0.16378754377365112, -0.48828205466270447, -0.3983417749404907 },
},
{
{
0.030615409836173058, -0.054301582276821136, -0.339020311832428 },
},
},
{
{
{
0.07144016772508621, 0.02758915163576603, 0.07049361616373062 },
},
{
{
-0.0778944194316864, -0.15413665771484375, -0.16747693717479706 },
},
{
{
-0.013569356873631477, 0.06704210489988327, -0.05496402829885483 },
},
{
{
-0.1281239539384842, 0.031051088124513626, -0.1602119654417038 },
},
{
{
-0.00432608975097537, 0.05091103911399841, 0.18888433277606964 },
},
{
{
-0.005425924435257912, 0.08964208513498306, 0.09766076505184174 },
},
{
{
-0.20830297470092773, -0.0011056008515879512, -0.055923331528902054 },
},
{
{
0.10325252264738083, -0.04977158457040787, 0.031811755150556564 },
},
{
{
0.005628583021461964, 0.033513329923152924, -0.09514040499925613 },
},
{
{
-0.03141958266496658, -0.002738664159551263, 0.06507360190153122 },
},
{
{
-0.08871274441480637, 0.10683330148458481, 0.014622199349105358 },
},
{
{
-0.04048578441143036, -0.09739933162927628, -0.05167422816157341 },
},
{
{
-0.11438855528831482, 0.09545715153217316, -0.08474317938089371 },
},
{
{
-0.005540562327951193, -0.0730547308921814, 0.052835170179605484 },
},
},
{
{
{
0.11621138453483582, -0.0703815370798111, -0.15648145973682404 },
},
{
{
-0.14044302701950073, 0.08268118649721146, 0.08993767946958542 },
},
{
{
-0.00955330953001976, -0.008626522496342659, 0.02026771381497383 },
},
{
{
-0.002018110128119588, 0.12016218155622482, 0.040423497557640076 },
},
{
{
0.046527739614248276, -0.017958661541342735, 0.08531536161899567 },
},
{
{
0.010515399277210236, -0.01151443924754858, -0.09661663323640823 },
},
{
{
-0.07506997883319855, -0.06396675854921341, -0.28271377086639404 },
},
{
{
-0.08586513996124268, 0.11725962907075882, 0.08079349249601364 },
},
{
{
0.04511026293039322, -0.11476226896047592, -0.018642498180270195 },
},
{
{
-0.1839684695005417, 0.07654909789562225, 0.09390031546354294 },
},
{
{
0.14495523273944855, 0.17805978655815125, 0.8275254368782043 },
},
{
{
-0.43975305557250977, -0.3309434950351715, -0.30364730954170227 },
},
{
{
-0.02615237981081009, -0.058956895023584366, 0.14612646400928497 },
},
{
{
-0.1424964964389801, 0.12259392440319061, 0.365558385848999 },
},
},
{
{
{
-0.08395911753177643, 0.06220465153455734, -0.05908321961760521 },
},
{
{
0.17239324748516083, -0.06658123433589935, 0.049108654260635376 },
},
{
{
-0.06959189474582672, 0.07152047753334045, 0.014019072987139225 },
},
{
{
0.037655849009752274, -0.0412483774125576, 0.04272862896323204 },
},
{
{
0.06819359958171844, -0.057858265936374664, 0.04141433909535408 },
},
{
{
-0.06363525986671448, 0.1027856394648552, -0.048031143844127655 },
},
{
{
-0.04906951263546944, 0.05951365828514099, 0.13987627625465393 },
},
{
{
-0.02140989527106285, 0.07200472056865692, -0.013966224156320095 },
},
{
{
0.025210944935679436, -0.035139597952365875, 0.05317254737019539 },
},
{
{
0.002688856329768896, -0.04109414666891098, 0.06364455819129944 },
},
{
{
0.15208300948143005, 0.16057968139648438, 0.05070324242115021 },
},
{
{
-0.5209112167358398, -0.5686830878257751, -0.5512078404426575 },
},
{
{
0.5651341676712036, 0.6615520119667053, 0.5950223803520203 },
},
{
{
-0.04709593951702118, -0.2502889633178711, -0.355474591255188 },
},
},
{
{
{
-0.06965361535549164, -0.013395440764725208, -0.09748203307390213 },
},
{
{
0.08662320673465729, -0.15144991874694824, -0.048469237983226776 },
},
{
{
0.029058044776320457, -0.07703512907028198, 0.06603114306926727 },
},
{
{
0.12970775365829468, 0.04414937645196915, 0.02656344696879387 },
},
{
{
-0.09983093291521072, 0.13135163486003876, 0.01478327065706253 },
},
{
{
-0.08012852817773819, 0.053230758756399155, 0.03355157747864723 },
},
{
{
0.07029883563518524, -0.039314523339271545, -0.04954763501882553 },
},
{
{
-0.005102288443595171, 0.05887074023485184, -0.08243996649980545 },
},
{
{
0.010298841632902622, -0.003943797666579485, 0.08647245913743973 },
},
{
{
0.06896678358316422, 0.04462363198399544, -0.04287821426987648 },
},
{
{
0.3531525135040283, 0.41383662819862366, 0.7632169723510742 },
},
{
{
0.028337575495243073, 0.025154531002044678, 0.2051236927509308 },
},
{
{
0.1043189987540245, -0.12665371596813202, 0.06431911885738373 },
},
{
{
0.02574232965707779, -0.13309329748153687, -0.06703555583953857 },
},
},
{
{
{
0.05122460797429085, -0.16550105810165405, -0.10792422294616699 },
},
{
{
-0.12936164438724518, 0.18080775439739227, -1.1318000555038452 },
},
{
{
-0.0078565813601017, 0.04624473303556442, 0.045270051807165146 },
},
{
{
-0.30148395895957947, 0.08768635243177414, -0.13184835016727448 },
},
{
{
-0.052562277764081955, -0.2654988467693329, 0.09325850009918213 },
},
{
{
-0.08248437941074371, 0.02796810120344162, -0.010744964703917503 },
},
{
{
0.3678629994392395, 0.7726619243621826, -1.2974742650985718 },
},
{
{
0.028413115069270134, 0.31875908374786377, -0.12957490980625153 },
},
{
{
-0.33925119042396545, 0.17299216985702515, -0.24787946045398712 },
},
{
{
0.005161715671420097, -0.004834616556763649, -0.5466576218605042 },
},
{
{
0.713006854057312, 1.3950773477554321, -1.5726885795593262 },
},
{
{
-0.06757359206676483, 0.2160101979970932, -1.1071768999099731 },
},
{
{
-0.39404499530792236, 0.26839348673820496, -1.4213404655456543 },
},
{
{
-0.24082772433757782, 0.07855596393346786, -1.3798370361328125 },
},
},
{
{
{
-0.22375643253326416, 0.07598037272691727, -0.001269069965928793 },
},
{
{
-0.011932553723454475, 0.02317965216934681, -0.046648040413856506 },
},
{
{
0.08086437731981277, 0.036442436277866364, -0.041996147483587265 },
},
{
{
0.0632227212190628, 0.025700919330120087, -0.016380075365304947 },
},
{
{
-0.19617173075675964, -0.09288524091243744, 0.24137689173221588 },
},
{
{
0.0187164768576622, 0.016871023923158646, -0.10564061254262924 },
},
{
{
0.09907069802284241, 0.060212042182683945, 0.07132785022258759 },
},
{
{
0.004438034724444151, 0.1308165043592453, 0.11900906264781952 },
},
{
{
0.13624553382396698, 0.0867360532283783, -0.18758957087993622 },
},
{
{
0.08353736996650696, 0.04695534333586693, -0.05258866026997566 },
},
{
{
0.13196571171283722, -0.02889242209494114, 0.11205381900072098 },
},
{
{
0.06976695358753204, 0.441987544298172, 0.40993237495422363 },
},
{
{
0.1790119707584381, 0.40901514887809753, 0.5762002468109131 },
},
{
{
-0.28146466612815857, -0.3645056486129761, -0.45120421051979065 },
},
},
{
{
{
-0.5742573738098145, -0.2891460061073303, -0.18912693858146667 },
},
{
{
-1.238901138305664, -0.972701907157898, -0.7216623425483704 },
},
{
{
-0.2613198757171631, -0.14145664870738983, -0.21001067757606506 },
},
{
{
-0.7497618198394775, -0.8478568196296692, -0.5759111046791077 },
},
{
{
-0.055738676339387894, -0.010415568947792053, 0.10453400760889053 },
},
{
{
0.1410987675189972, -0.053574614226818085, 0.13054846227169037 },
},
{
{
-1.2892053127288818, -1.0034855604171753, -1.0259860754013062 },
},
{
{
-0.044485606253147125, 0.14610788226127625, 0.08671954274177551 },
},
{
{
0.007267660927027464, -0.12177003175020218, -0.15392126142978668 },
},
{
{
0.05383284389972687, 0.08917342126369476, 0.10815636813640594 },
},
{
{
-0.36585181951522827, -0.046899519860744476, 0.034732334315776825 },
},
{
{
-0.5150718092918396, -0.41336795687675476, -0.32317614555358887 },
},
{
{
-0.11304757744073868, 0.16682535409927368, 0.14908888936042786 },
},
{
{
0.31416457891464233, 0.31091222167015076, 0.45073893666267395 },
},
},
{
{
{
0.06585703790187836, -0.46451008319854736, 0.05770042538642883 },
},
{
{
0.08324404060840607, -0.6509653925895691, -0.2758477032184601 },
},
{
{
0.004890149459242821, -0.15876680612564087, 0.2179994285106659 },
},
{
{
0.029032118618488312, -0.30020737648010254, -0.23080310225486755 },
},
{
{
0.3282095789909363, 0.1720593124628067, 0.005778976250439882 },
},
{
{
-0.012728530913591385, -0.23412694036960602, 0.0344402901828289 },
},
{
{
-0.577242374420166, -0.6702184677124023, -0.20031188428401947 },
},
{
{
-0.14879855513572693, 0.055874742567539215, -0.18503350019454956 },
},
{
{
0.12536847591400146, -0.15686364471912384, -0.17606179416179657 },
},
{
{
0.09620676934719086, -0.23019813001155853, -0.06033394858241081 },
},
{
{
0.21925169229507446, -0.5008177161216736, 0.009826643392443657 },
},
{
{
-0.14043697714805603, -0.8264385461807251, -0.1362876296043396 },
},
{
{
0.1579362452030182, -0.7924764752388, -0.22303450107574463 },
},
{
{
0.20619423687458038, -0.7769707441329956, -0.3734210133552551 },
},
},
{
{
{
0.017836913466453552, -0.19191156327724457, 0.11314928531646729 },
},
{
{
-0.26955676078796387, -0.7871332764625549, -0.9782130718231201 },
},
{
{
0.030012693256139755, -0.07816250622272491, 0.09871526807546616 },
},
{
{
0.012610513716936111, 0.1951933205127716, 0.3152373433113098 },
},
{
{
-0.00828175712376833, 0.14248603582382202, -0.12706448137760162 },
},
{
{
0.07733141630887985, 0.11982253193855286, -0.13630297780036926 },
},
{
{
-0.4341209828853607, -0.7323611378669739, -0.5801453590393066 },
},
{
{
-0.10141398757696152, -0.014381605200469494, 0.018742546439170837 },
},
{
{
0.09747012704610825, -0.13978156447410583, -0.11320756375789642 },
},
{
{
-0.004113294184207916, -0.37215113639831543, 0.019016660749912262 },
},
{
{
-0.03845677152276039, -0.035054709762334824, 0.1776987761259079 },
},
{
{
1.0201183557510376, 0.9003708958625793, 0.901643693447113 },
},
{
{
0.25479385256767273, 0.2860025465488434, 0.13172893226146698 },
},
{
{
-0.18023793399333954, -0.3117522895336151, -0.2464042603969574 },
},
},
};
static const float tensor_conv1_bias[32] = {
0.43245136737823486, -0.05236610025167465, 1.369430661201477, -0.08390671014785767, 0.019652526825666428, -0.1691773235797882, 0.08568333834409714, 0.2884224057197571, -0.021304596215486526, -0.02711600996553898, -0.12440937012434006, -0.2735038995742798, 0.8440940976142883, -0.29657721519470215, -0.05515318736433983, 0.34729406237602234, -0.0012276873458176851, -0.35362210869789124, -0.0032100272364914417, -0.05535401031374931, 0.00843761395663023, -0.00019909173715859652, 0.3882160782814026, -0.14772623777389526, 0.07196572422981262, 0.08783315867185593, -0.3406682312488556, -0.009736046195030212, -0.2224336713552475, 0.05132795125246048, 0.3610575795173645, -0.3700854778289795 
};
static const float tensor_conv2_weight[32][32][1][3] = {
{
{
{
0.30859220027923584, 0.3697454035282135, -0.9002777338027954 },
},
{
{
0.4380364716053009, 0.4991491436958313, -0.7405073642730713 },
},
{
{
-0.24807515740394592, -0.3407008945941925, -1.3257590532302856 },
},
{
{
0.08940315991640091, -0.07739713788032532, -0.06157677248120308 },
},
{
{
0.12537239491939545, -1.6375457048416138, -0.3612835109233856 },
},
{
{
0.08746296167373657, -0.11039478331804276, -1.0084484815597534 },
},
{
{
0.05664242431521416, 0.07167515903711319, -0.7591313123703003 },
},
{
{
0.7098468542098999, 0.8728628158569336, -0.7308806777000427 },
},
{
{
0.47658056020736694, 0.5224705934524536, -0.629941463470459 },
},
{
{
0.15215985476970673, -0.4887354373931885, -0.16618332266807556 },
},
{
{
0.47772452235221863, 0.34843909740448, -0.9761768579483032 },
},
{
{
0.39961665868759155, 0.5042092800140381, -0.8694772720336914 },
},
{
{
0.21894383430480957, 0.23928159475326538, -1.2222039699554443 },
},
{
{
0.2996802031993866, 0.27781033515930176, -0.856219470500946 },
},
{
{
-0.0004386810469441116, 0.10169839859008789, -0.9622103571891785 },
},
{
{
0.16015933454036713, 0.13090647757053375, -0.749890148639679 },
},
{
{
-0.0033626242075115442, 0.07439745217561722, -0.4729895293712616 },
},
{
{
0.8139504194259644, 0.819453239440918, -0.6233615279197693 },
},
{
{
0.8253856301307678, 0.8151402473449707, -0.5394627451896667 },
},
{
{
-0.07156366854906082, -0.06279932707548141, 0.06379024684429169 },
},
{
{
0.32686397433280945, -0.5630879998207092, -0.665998101234436 },
},
{
{
0.12193362414836884, 0.17205104231834412, -0.4627171754837036 },
},
{
{
0.5312327146530151, 0.4760195016860962, -0.7788271307945251 },
},
{
{
0.07459966838359833, -0.038327187299728394, -0.004374233074486256 },
},
{
{
0.32228556275367737, 0.5104145407676697, -0.47138479351997375 },
},
{
{
-0.9542781114578247, -0.8924254179000854, -0.5455293655395508 },
},
{
{
0.7183271050453186, 0.7987177968025208, -0.5396906733512878 },
},
{
{
-0.22952644526958466, -1.2318552732467651, -1.2190911769866943 },
},
{
{
0.42029035091400146, 0.441414475440979, -0.8536487817764282 },
},
{
{
0.6348702907562256, 0.49898362159729004, 0.016559069976210594 },
},
{
{
-0.1321343034505844, -0.34199392795562744, -0.7873765826225281 },
},
{
{
-0.15906955301761627, 0.14484865963459015, -0.19357702136039734 },
},
},
{
{
{
-0.10842552036046982, -0.006860377732664347, 0.05369049310684204 },
},
{
{
-0.06638072431087494, -0.11944693326950073, -0.11667438596487045 },
},
{
{
-0.041836075484752655, -0.07101082056760788, -0.03774155676364899 },
},
{
{
-0.09260407090187073, -0.09790383279323578, 0.009691288694739342 },
},
{
{
-0.08137231320142746, -0.003421834670007229, -0.09317255765199661 },
},
{
{
-0.02673504501581192, 0.016098372638225555, -0.022780274972319603 },
},
{
{
0.038600098341703415, -0.11498834937810898, -0.08242898434400558 },
},
{
{
0.027683092281222343, 0.03785949945449829, -0.09375669807195663 },
},
{
{
-0.10744993388652802, -0.047200869768857956, -0.03342493996024132 },
},
{
{
0.07318636775016785, 0.022369366139173508, 0.046944186091423035 },
},
{
{
-0.019332248717546463, -0.0968238115310669, 0.03591400757431984 },
},
{
{
0.07867932319641113, -0.037088360637426376, 0.03507819399237633 },
},
{
{
0.07395956665277481, -0.003195507451891899, -0.020510191097855568 },
},
{
{
-0.004391747526824474, -0.08797759562730789, -0.08460308611392975 },
},
{
{
-0.026903491467237473, -0.016789089888334274, -0.07983291894197464 },
},
{
{
-0.06924311816692352, -0.09864698350429535, 0.07177332788705826 },
},
{
{
0.031493574380874634, 0.03556973114609718, 0.0499650314450264 },
},
{
{
-0.014159574173390865, -0.0748993307352066, 0.06576140969991684 },
},
{
{
-0.08530069142580032, -0.029742423444986343, -0.09221992641687393 },
},
{
{
-0.07041546702384949, 0.08619637042284012, -0.02054496482014656 },
},
{
{
-0.02044067718088627, -0.09971549361944199, 0.07033965736627579 },
},
{
{
-0.0011324575170874596, -0.011075617745518684, 0.004180955234915018 },
},
{
{
-0.0089179752394557, 0.0067953565157949924, -0.019765378907322884 },
},
{
{
-0.01503735315054655, -0.06052391603589058, -0.07876692712306976 },
},
{
{
-0.06750795245170593, 0.06298977136611938, 0.038059789687395096 },
},
{
{
0.030971290543675423, -0.029387447983026505, -0.10607574880123138 },
},
{
{
-0.034601323306560516, -0.11292237788438797, -0.10340531170368195 },
},
{
{
-0.03746570646762848, -0.03776394575834274, -0.10013100504875183 },
},
{
{
-0.0940503403544426, -0.06663858890533447, -0.05119422823190689 },
},
{
{
-0.01051866915076971, -0.0953088030219078, 0.02556237019598484 },
},
{
{
-0.07499311119318008, -0.019585298374295235, 0.0007971884333528578 },
},
{
{
-0.11505810171365738, -0.1378011852502823, -0.1156383752822876 },
},
},
{
{
{
0.058928534388542175, 0.002554581267759204, -0.04818969592452049 },
},
{
{
-0.07843175530433655, -0.06991426646709442, 0.03638658672571182 },
},
{
{
-0.052353471517562866, 0.034830231219530106, 0.015772242099046707 },
},
{
{
-0.06933706253767014, -0.031738750636577606, -0.011075597256422043 },
},
{
{
-0.04975275322794914, 0.0015604455256834626, -0.09554996341466904 },
},
{
{
0.0013886603992432356, 0.0676594227552414, -0.046506963670253754 },
},
{
{
0.10071694105863571, -0.07467211037874222, -0.06484142690896988 },
},
{
{
-0.09861025959253311, -0.009552745148539543, 0.009783887304365635 },
},
{
{
0.03918199986219406, 0.10054967552423477, 0.023778660222887993 },
},
{
{
-0.02956465631723404, -0.10094540566205978, 0.024829363450407982 },
},
{
{
-0.0002148366766050458, -0.016817836090922356, -0.04090988263487816 },
},
{
{
-0.02270945906639099, -0.05601834878325462, -0.04425530508160591 },
},
{
{
-0.09221872687339783, 0.014814752154052258, 0.030556445941329002 },
},
{
{
-0.08116800338029861, -0.04015940800309181, -0.03479595482349396 },
},
{
{
-0.0017305793007835746, -0.022310853004455566, -0.01914471760392189 },
},
{
{
0.044231172651052475, 0.05570390820503235, -0.07581660151481628 },
},
{
{
0.06343208253383636, 0.014226370491087437, -0.08577930182218552 },
},
{
{
0.018373165279626846, -0.04211615025997162, -0.06743419915437698 },
},
{
{
-0.08766373246908188, 0.02228250354528427, -0.08868250250816345 },
},
{
{
-0.045015931129455566, -0.01374515239149332, 0.08132001012563705 },
},
{
{
0.06459435820579529, 0.038471490144729614, -0.10496258735656738 },
},
{
{
0.0659288838505745, 0.007112529128789902, 0.0705912783741951 },
},
{
{
-0.005722944624722004, 0.0556609220802784, -0.042126115411520004 },
},
{
{
-0.05287477374076843, 0.06963098049163818, -0.11507181823253632 },
},
{
{
0.03366313502192497, -0.022278528660535812, 0.046125952154397964 },
},
{
{
0.06805043667554855, 0.00034000255982391536, -0.08344332128763199 },
},
{
{
-0.03333437815308571, 0.029197052121162415, -0.015301675535738468 },
},
{
{
-0.05801742151379585, -0.03165547177195549, -0.09756038337945938 },
},
{
{
0.015613547526299953, -0.013996423222124577, 0.10019827634096146 },
},
{
{
-0.03445230796933174, 0.09007471054792404, -0.07514999061822891 },
},
{
{
-0.08173349499702454, -0.09326166659593582, -0.029519056901335716 },
},
{
{
-0.06721383333206177, -0.05173448100686073, -0.04647914692759514 },
},
},
{
{
{
0.2746864855289459, 0.14886143803596497, 0.07429272681474686 },
},
{
{
0.05704311281442642, 0.1503416895866394, 0.0038792043924331665 },
},
{
{
0.4755585789680481, 0.13006944954395294, -0.4725028872489929 },
},
{
{
0.0212295763194561, 0.038823872804641724, 0.03582533076405525 },
},
{
{
0.5866895914077759, 0.5028510093688965, 0.48422712087631226 },
},
{
{
0.2315523475408554, 0.18364429473876953, -0.0702449306845665 },
},
{
{
-0.009044175036251545, -0.2793082594871521, 0.27248480916023254 },
},
{
{
-0.23162230849266052, -0.29479852318763733, 0.5385673642158508 },
},
{
{
0.07628099620342255, -0.09263744950294495, -0.9226197004318237 },
},
{
{
0.6337032914161682, 0.6672772169113159, 0.785559892654419 },
},
{
{
-0.1036454364657402, -0.02121018059551716, 0.12105072289705276 },
},
{
{
-0.11516548693180084, 0.008020546287298203, -0.0454615093767643 },
},
{
{
0.15384441614151, 0.015196451917290688, -0.4688825309276581 },
},
{
{
-0.22299300134181976, -0.2751135528087616, -0.8874371647834778 },
},
{
{
0.008589904755353928, 0.21432416141033173, -0.463573694229126 },
},
{
{
0.2514282464981079, 0.15158595144748688, -0.20316918194293976 },
},
{
{
0.07820853590965271, -0.0073026916943490505, 0.11462782323360443 },
},
{
{
-0.09987824410200119, 0.05645459145307541, -0.37623414397239685 },
},
{
{
0.048694074153900146, -0.006712485104799271, 0.07339262217283249 },
},
{
{
-0.020623404532670975, -0.02866976149380207, -0.09455926716327667 },
},
{
{
0.29589927196502686, 0.48910629749298096, 0.9534618258476257 },
},
{
{
0.183968186378479, 0.04245545342564583, -0.18135762214660645 },
},
{
{
-0.048133887350559235, -0.11607428640127182, -0.12807005643844604 },
},
{
{
-0.08494148403406143, -0.02875654585659504, -0.01680654101073742 },
},
{
{
0.12443342059850693, -0.07198387384414673, -0.5409671664237976 },
},
{
{
0.18599461019039154, 0.12237662076950073, 0.04886117950081825 },
},
{
{
-0.13664454221725464, -0.2007122039794922, 0.5733467936515808 },
},
{
{
0.41122058033943176, 0.28350570797920227, 0.385800302028656 },
},
{
{
-0.05022090673446655, 0.04728422313928604, 0.7171270847320557 },
},
{
{
-0.3885478377342224, -0.6366301774978638, -0.4720211923122406 },
},
{
{
-0.15764951705932617, -0.47759178280830383, -0.1990126371383667 },
},
{
{
0.16905595362186432, 0.23680603504180908, -0.36657682061195374 },
},
},
{
{
{
-0.1660119891166687, 0.02848244458436966, -0.028059860691428185 },
},
{
{
0.001939395209774375, -0.036237575113773346, 0.10990279912948608 },
},
{
{
0.02831289917230606, -0.06449541449546814, -0.03790714591741562 },
},
{
{
0.03323552757501602, 0.03227249160408974, -0.08119939267635345 },
},
{
{
-1.1460376977920532, -0.5443415641784668, -0.6081924438476562 },
},
{
{
-0.24332717061042786, -0.2848542332649231, -0.2892917990684509 },
},
{
{
-0.10196156054735184, -0.1650986522436142, -0.49706944823265076 },
},
{
{
-0.18896572291851044, -0.06710319221019745, -0.34032052755355835 },
},
{
{
0.09503397345542908, 0.09786263108253479, 0.3010246455669403 },
},
{
{
0.17905767261981964, -0.7475990653038025, -0.6387989521026611 },
},
{
{
-0.11763060837984085, -0.22408710420131683, -0.06221794709563255 },
},
{
{
-0.10578112304210663, 0.15529844164848328, 0.06535367667675018 },
},
{
{
-0.18130679428577423, 0.16120509803295135, 0.12311922758817673 },
},
{
{
0.09924593567848206, 0.13476240634918213, 0.08946242928504944 },
},
{
{
-0.16769163310527802, -0.3047157824039459, -0.36970847845077515 },
},
{
{
-0.1855861395597458, -0.20257383584976196, 0.2062840610742569 },
},
{
{
-0.05033225193619728, -0.22956277430057526, -0.41848549246788025 },
},
{
{
-0.06640689820051193, 0.10588160902261734, 0.1583060473203659 },
},
{
{
0.028096521273255348, -0.05081676319241524, 0.06732603162527084 },
},
{
{
-0.09496413916349411, 0.0553286150097847, 0.09843288362026215 },
},
{
{
0.016267092898488045, 0.030564825981855392, -0.08637183904647827 },
},
{
{
0.20704789459705353, 0.12949496507644653, 0.07506445050239563 },
},
{
{
-0.004978622775524855, -0.05941488966345787, 0.11659295111894608 },
},
{
{
0.0721142590045929, -0.06503868103027344, 0.0010945465182885528 },
},
{
{
-0.12788629531860352, 0.06672228872776031, -0.22210060060024261 },
},
{
{
0.07455459982156754, 0.11336620151996613, -0.011349010281264782 },
},
{
{
0.016237545758485794, 0.268685519695282, 0.12446747720241547 },
},
{
{
-0.10190539062023163, 0.2911989688873291, 0.03007824718952179 },
},
{
{
-0.12326490879058838, 0.057197414338588715, 0.3488560616970062 },
},
{
{
-0.10094084590673447, -0.06658831983804703, 0.010723937302827835 },
},
{
{
-0.06618493795394897, -0.055277395993471146, -0.11322136223316193 },
},
{
{
-0.011411087587475777, 0.010686029680073261, -0.18612165749073029 },
},
},
{
{
{
0.4029783606529236, 0.4356759190559387, -1.396259069442749 },
},
{
{
0.019527092576026917, 0.20443692803382874, -1.097353458404541 },
},
{
{
0.8171808123588562, 0.7303463220596313, -1.4632188081741333 },
},
{
{
-0.09943745285272598, 0.08087815344333649, 0.09446043521165848 },
},
{
{
-0.10464118421077728, 0.214242622256279, -0.7679643034934998 },
},
{
{
-0.24932850897312164, -0.1770031452178955, -0.7327930927276611 },
},
{
{
0.07929342240095139, 0.08685149252414703, -1.3430291414260864 },
},
{
{
0.10253538191318512, 0.10738031566143036, -1.1302093267440796 },
},
{
{
0.1957293152809143, 0.13596363365650177, -0.7805527448654175 },
},
{
{
-0.1841464787721634, 0.6264301538467407, -0.8472231030464172 },
},
{
{
-0.14766773581504822, -0.09754125028848648, -0.6802607178688049 },
},
{
{
-0.22147613763809204, -0.13250236213207245, -0.7394497394561768 },
},
{
{
0.5595200061798096, 0.4643704295158386, -1.132332444190979 },
},
{
{
-0.06355985999107361, -0.22146229445934296, -0.46690404415130615 },
},
{
{
0.061945557594299316, 0.03446364775300026, -1.090901494026184 },
},
{
{
0.5422801375389099, 0.519634485244751, -1.1821095943450928 },
},
{
{
0.12215938419103622, 0.14361442625522614, -1.3313875198364258 },
},
{
{
-0.23114439845085144, 0.001136073493398726, -0.5986853241920471 },
},
{
{
-0.019066646695137024, 0.03138525038957596, -1.203303575515747 },
},
{
{
0.0009257434867322445, 0.08234496414661407, 0.08784806728363037 },
},
{
{
-0.37250468134880066, 0.220667764544487, -1.3163198232650757 },
},
{
{
0.18591175973415375, 0.14815810322761536, -1.327104926109314 },
},
{
{
0.6693002581596375, 0.5422324538230896, -1.3062001466751099 },
},
{
{
-0.07576039433479309, -0.06242342293262482, 0.007888322696089745 },
},
{
{
-0.05518689379096031, 0.0612679198384285, -1.1754400730133057 },
},
{
{
-0.4307745695114136, -0.3192518651485443, -0.4298517107963562 },
},
{
{
0.009414314292371273, -0.15179172158241272, -0.697487473487854 },
},
{
{
-0.22975820302963257, -0.21515606343746185, -0.7276991009712219 },
},
{
{
-0.2288569211959839, -0.008762051351368427, -0.5483365654945374 },
},
{
{
0.17097046971321106, 0.0006698211655020714, -0.7580554485321045 },
},
{
{
0.159275621175766, -0.015186973847448826, -1.3070576190948486 },
},
{
{
0.24345743656158447, 0.4142213463783264, -1.1678731441497803 },
},
},
{
{
{
-0.06357594579458237, -0.08454632014036179, -0.002600406762212515 },
},
{
{
-0.2349255084991455, -0.21678034961223602, -0.11347030103206635 },
},
{
{
0.048383213579654694, 0.012364005669951439, 0.024503789842128754 },
},
{
{
-0.011429479345679283, -0.0940004289150238, -0.012339076958596706 },
},
{
{
-0.28661420941352844, -0.5734069347381592, -0.19572335481643677 },
},
{
{
-0.030577603727579117, -0.08047958463430405, 0.008544141426682472 },
},
{
{
0.6381658315658569, 0.7282054424285889, 0.5506107211112976 },
},
{
{
-0.2723100185394287, -0.31351813673973083, -0.2953126132488251 },
},
{
{
0.12075582891702652, 0.07961096614599228, 0.1166333332657814 },
},
{
{
0.4431815445423126, 0.2571420669555664, -0.17617708444595337 },
},
{
{
-0.11335195600986481, -0.096108078956604, -0.2278558313846588 },
},
{
{
-0.12945212423801422, -0.15571314096450806, -0.013701523654162884 },
},
{
{
0.19872532784938812, 0.12760287523269653, 0.14917339384555817 },
},
{
{
0.23921196162700653, 0.2026737481355667, 0.17084181308746338 },
},
{
{
0.0076644099317491055, -0.09711860865354538, 0.041198864579200745 },
},
{
{
0.12674294412136078, 0.04652442783117294, 0.025982534512877464 },
},
{
{
-0.49318447709083557, -0.4897170960903168, -0.5600177049636841 },
},
{
{
0.16036540269851685, 0.026855487376451492, 0.09718994796276093 },
},
{
{
-0.07774888724088669, -0.18268811702728271, -0.12772008776664734 },
},
{
{
0.08930350095033646, 0.09548883140087128, 0.022384077310562134 },
},
{
{
-0.19226938486099243, -0.16951632499694824, -0.04277899116277695 },
},
{
{
0.016682416200637817, -0.1037023663520813, -0.05356326699256897 },
},
{
{
-0.1482534408569336, -0.24141378700733185, -0.30545806884765625 },
},
{
{
0.01866788975894451, -0.05009836331009865, 0.08568738400936127 },
},
{
{
-0.06193322315812111, -0.19808554649353027, -0.13397562503814697 },
},
{
{
-0.2440127730369568, -0.20982718467712402, -0.25821471214294434 },
},
{
{
0.31691890954971313, 0.26080939173698425, 0.23559993505477905 },
},
{
{
-0.15143389999866486, -0.2900471091270447, 0.07356178760528564 },
},
{
{
-0.2013860046863556, -0.10413112491369247, 0.035020649433135986 },
},
{
{
-0.6503609418869019, -0.632312536239624, -0.48309770226478577 },
},
{
{
-0.16302119195461273, -0.005894117522984743, -0.06172787398099899 },
},
{
{
-0.02724565751850605, 0.10885419696569443, 0.09502255171537399 },
},
},
{
{
{
0.49464529752731323, -0.226506769657135, 0.41771066188812256 },
},
{
{
-0.2383527308702469, -0.17651601135730743, -0.14583943784236908 },
},
{
{
-0.1451297551393509, -1.0500810146331787, -0.21891455352306366 },
},
{
{
0.09526263922452927, 0.05297894775867462, 0.0910855382680893 },
},
{
{
0.7003306746482849, 0.3332592248916626, 1.0228240489959717 },
},
{
{
0.2263203114271164, -0.21296313405036926, -0.18822355568408966 },
},
{
{
-0.7636141777038574, -0.3294588327407837, -0.2156728357076645 },
},
{
{
-0.09205513447523117, -0.588830292224884, 0.026039766147732735 },
},
{
{
-0.13783042132854462, 0.699504554271698, -1.8642504215240479 },
},
{
{
0.6829631328582764, 0.3714340627193451, 1.019699215888977 },
},
{
{
-0.027281640097498894, 0.0013182006077840924, 0.5668802261352539 },
},
{
{
-0.276116281747818, -0.6873934864997864, -0.443199098110199 },
},
{
{
-0.9870365858078003, -0.22937828302383423, 0.051793668419122696 },
},
{
{
-0.18640117347240448, -0.6110101342201233, -0.7304974794387817 },
},
{
{
-0.15731942653656006, -0.4795408248901367, -0.18536162376403809 },
},
{
{
0.5503003597259521, -0.2414272576570511, -0.13863278925418854 },
},
{
{
0.8166606426239014, -1.0020829439163208, -0.17155946791172028 },
},
{
{
-0.18564316630363464, -0.3753127157688141, -0.3113221228122711 },
},
{
{
-0.11902380734682083, -0.6526667475700378, 0.058811917901039124 },
},
{
{
-0.09008083492517471, 0.038949884474277496, 0.08307071775197983 },
},
{
{
-1.0970938205718994, 1.7187331914901733, 1.0877050161361694 },
},
{
{
0.022528458386659622, -0.3117814362049103, 0.04730243608355522 },
},
{
{
0.6410119533538818, -0.7875770926475525, -0.11161646991968155 },
},
{
{
-0.2634831964969635, -0.12344537675380707, -0.15195290744304657 },
},
{
{
-0.03744567930698395, -0.3743404448032379, -0.4614779055118561 },
},
{
{
-0.47107991576194763, -1.1553575992584229, -0.49881941080093384 },
},
{
{
-0.24235381186008453, -0.7012507319450378, -0.73572838306427 },
},
{
{
0.4574597477912903, 1.118263840675354, 1.8151447772979736 },
},
{
{
-0.044310059398412704, 0.40688031911849976, 0.8029388785362244 },
},
{
{
-0.400283545255661, -1.6945568323135376, -5.153532981872559 },
},
{
{
1.8722740411758423, -2.862830638885498, -0.81339031457901 },
},
{
{
0.0019394105765968561, -0.19477176666259766, 0.11162638664245605 },
},
},
{
{
{
0.1226610615849495, -0.08014903962612152, 0.1553819179534912 },
},
{
{
0.2851617634296417, 0.04585041478276253, -0.0510297454893589 },
},
{
{
0.11127737909555435, -0.03496122732758522, -0.10920296609401703 },
},
{
{
-0.02057044208049774, -0.08705649524927139, -0.08977288007736206 },
},
{
{
-0.03092150203883648, 0.034997470676898956, -0.0857895240187645 },
},
{
{
-0.05669616907835007, -0.13553345203399658, -0.16630779206752777 },
},
{
{
0.09085707366466522, 0.16563081741333008, -0.18238024413585663 },
},
{
{
-0.16742905974388123, -0.06673669815063477, 0.061773527413606644 },
},
{
{
-0.10147673636674881, -0.07837112247943878, -0.26036885380744934 },
},
{
{
0.19757698476314545, 0.31286147236824036, 0.2977762222290039 },
},
{
{
0.10297965258359909, 0.15992580354213715, 0.1553747057914734 },
},
{
{
-0.25258633494377136, -0.17769622802734375, -0.2140302211046219 },
},
{
{
-0.03282676637172699, -0.12004947662353516, -0.19374991953372955 },
},
{
{
-0.1455637812614441, -0.1280478835105896, -0.04907429590821266 },
},
{
{
0.1671660840511322, -0.056602951139211655, -0.09879136830568314 },
},
{
{
0.2690073251724243, -0.012419503182172775, -0.03767111524939537 },
},
{
{
0.3265742361545563, -0.15612690150737762, 0.12380549311637878 },
},
{
{
0.060879696160554886, 0.10326219350099564, -0.044691212475299835 },
},
{
{
0.23509760200977325, 0.07973574846982956, 0.09421489387750626 },
},
{
{
-0.07172556966543198, 0.0490766204893589, 0.08292993903160095 },
},
{
{
-0.47156044840812683, -0.15685181319713593, -0.08563394099473953 },
},
{
{
-0.10307927429676056, 0.0024477362167090178, 0.05136708915233612 },
},
{
{
-0.18652859330177307, -0.3650292158126831, -0.19786688685417175 },
},
{
{
0.064293272793293, -0.08592372387647629, -0.06378452479839325 },
},
{
{
0.058186668902635574, 0.3619733452796936, -0.010154906660318375 },
},
{
{
0.059793006628751755, 0.31916719675064087, -0.11469315737485886 },
},
{
{
-0.49496275186538696, -0.253184050321579, -0.13327603042125702 },
},
{
{
-1.0281487703323364, -0.9397185444831848, -0.9958500862121582 },
},
{
{
0.11588945984840393, 0.23188067972660065, -0.028192758560180664 },
},
{
{
0.08990943431854248, 0.09218526631593704, 0.26912257075309753 },
},
{
{
-0.4729398190975189, -0.16391095519065857, -0.14672233164310455 },
},
{
{
0.10718958079814911, 0.38947081565856934, 0.3232409954071045 },
},
},
{
{
{
0.10746681690216064, -0.05183916911482811, -0.05408770591020584 },
},
{
{
-0.06900854408740997, -0.06943460553884506, -0.03253968060016632 },
},
{
{
-0.04285379499197006, -0.13620176911354065, -0.021079769358038902 },
},
{
{
-0.008028618060052395, -0.058997154235839844, 0.07451176643371582 },
},
{
{
-1.4720357656478882, -0.9975546002388, -0.776370108127594 },
},
{
{
0.07180551439523697, -0.009245791472494602, 0.07876931130886078 },
},
{
{
0.12072408944368362, -0.0877372995018959, 0.031658414751291275 },
},
{
{
0.15890438854694366, 0.05683209002017975, 0.17980603873729706 },
},
{
{
0.10946410149335861, 0.16245804727077484, 0.12907201051712036 },
},
{
{
-0.6270087361335754, -0.06673534214496613, 0.21848496794700623 },
},
{
{
0.027059152722358704, 0.10636159777641296, 0.001184210181236267 },
},
{
{
-0.2517337501049042, -0.2030276358127594, -0.21401013433933258 },
},
{
{
-0.0004303758032619953, 0.12482757121324539, 0.07462230324745178 },
},
{
{
-0.03591425344347954, 0.0028475655708462, 0.01959238201379776 },
},
{
{
0.015059681609272957, 0.01827298291027546, -0.09606967866420746 },
},
{
{
-0.07801402360200882, -0.1975979208946228, -0.11218187212944031 },
},
{
{
-0.004442889709025621, -0.012386433780193329, 0.06472141295671463 },
},
{
{
0.003182648215442896, 0.05382436141371727, 0.02766754850745201 },
},
{
{
-0.09654313325881958, -0.047309838235378265, -0.11802154034376144 },
},
{
{
-0.005102636758238077, -0.04868200421333313, -0.08723922818899155 },
},
{
{
-0.4632463753223419, -0.3159426748752594, -0.3534386157989502 },
},
{
{
0.03870962932705879, 0.0061202701181173325, 0.024745017290115356 },
},
{
{
0.06587977707386017, 0.029547540470957756, 0.07337882369756699 },
},
{
{
0.07850689440965652, -0.103336863219738, -0.024445923045277596 },
},
{
{
0.15211279690265656, 0.11000076681375504, 0.17838071286678314 },
},
{
{
-0.04645637422800064, 0.050754282623529434, -0.06963081657886505 },
},
{
{
-0.018838096410036087, -0.195596843957901, -0.17121358215808868 },
},
{
{
0.3616989254951477, -0.06306446343660355, -0.7622071504592896 },
},
{
{
-0.16770294308662415, -0.17656764388084412, -0.10488256067037582 },
},
{
{
-0.24046266078948975, -0.14272800087928772, -0.14920632541179657 },
},
{
{
-0.36088383197784424, -0.22578585147857666, -0.19321484863758087 },
},
{
{
-0.03221714124083519, -0.01780708134174347, -0.035101812332868576 },
},
},
{
{
{
-0.08280200511217117, -0.1252635270357132, -0.118212029337883 },
},
{
{
-0.10661963373422623, -0.011919626966118813, -0.07319047302007675 },
},
{
{
-0.10247115790843964, 0.1292744129896164, -0.3421183228492737 },
},
{
{
0.042420364916324615, 0.04471943899989128, 0.04878666251897812 },
},
{
{
-0.12720887362957, -0.930372953414917, -0.43189743161201477 },
},
{
{
0.005524464417248964, 0.03848136588931084, 0.08335141092538834 },
},
{
{
-0.05091119185090065, -0.05773870646953583, -0.0009086811332963407 },
},
{
{
-0.07358655333518982, -0.08281055092811584, -0.08302098512649536 },
},
{
{
0.15405073761940002, 0.08351174741983414, 0.03933488950133324 },
},
{
{
0.6775217652320862, -0.09236307442188263, -0.28363099694252014 },
},
{
{
0.06693831086158752, 0.004829996731132269, -0.08759479969739914 },
},
{
{
0.1490451991558075, 0.07749123871326447, -0.03442663326859474 },
},
{
{
-0.1408073455095291, -0.11519862711429596, -0.2523419260978699 },
},
{
{
-0.24405145645141602, 0.04805760458111763, 0.06493017077445984 },
},
{
{
-0.04948759824037552, -0.1334073841571808, -0.015738781541585922 },
},
{
{
-0.0055067348293960094, -0.050013113766908646, -0.2185840755701065 },
},
{
{
-0.036264050751924515, -0.12026019394397736, -0.04147401824593544 },
},
{
{
0.05349192023277283, 0.039160288870334625, -0.08694247156381607 },
},
{
{
0.10513240098953247, 0.007773851975798607, -0.12309717386960983 },
},
{
{
-0.03151709586381912, 0.07188352942466736, 0.08722556382417679 },
},
{
{
-0.08628281205892563, -0.09102361649274826, 0.038967929780483246 },
},
{
{
-0.12230148911476135, -0.051585372537374496, -0.20461344718933105 },
},
{
{
0.0849727913737297, -0.10654417425394058, -0.15684224665164948 },
},
{
{
0.00534942327067256, -0.040247127413749695, 0.0488581582903862 },
},
{
{
0.02373955398797989, 0.024644464254379272, 0.03118593990802765 },
},
{
{
0.07976916432380676, -0.11465243250131607, -0.12946338951587677 },
},
{
{
0.037871986627578735, 0.005561090540140867, 0.09631935507059097 },
},
{
{
-0.47806665301322937, -0.08951836079359055, 0.04616300016641617 },
},
{
{
-0.07061832398176193, -0.12192188948392868, -0.024405313655734062 },
},
{
{
-0.04105360805988312, -0.05939403548836708, -0.036226000636816025 },
},
{
{
0.12942756712436676, 0.02208189107477665, 0.008687745779752731 },
},
{
{
-0.06026468425989151, 0.04660593718290329, -0.08247395604848862 },
},
},
{
{
{
0.0990748181939125, 0.43044576048851013, 0.4869610369205475 },
},
{
{
-0.12058570981025696, 0.1845247447490692, -0.2170618176460266 },
},
{
{
-1.133424997329712, -0.15349072217941284, 0.1631285399198532 },
},
{
{
0.05063743144273758, 0.08855482190847397, -0.02076139859855175 },
},
{
{
0.3840342164039612, 0.6462237238883972, 1.1365042924880981 },
},
{
{
-0.6895407438278198, -0.3028561472892761, -0.4899575114250183 },
},
{
{
-1.1536526679992676, -0.05185180529952049, 0.35217010974884033 },
},
{
{
0.23112978041172028, 0.0933859720826149, 0.09929194301366806 },
},
{
{
-0.36637914180755615, -0.36025500297546387, -0.5827978253364563 },
},
{
{
0.5451157093048096, 0.577914297580719, 1.0181516408920288 },
},
{
{
0.1667454093694687, -0.2791667580604553, -1.3257657289505005 },
},
{
{
0.37413299083709717, 0.32411012053489685, -0.38369041681289673 },
},
{
{
0.20821687579154968, -0.046068064868450165, 0.20440185070037842 },
},
{
{
-0.8589989542961121, -0.4046381711959839, -0.505896806716919 },
},
{
{
-0.6487120389938354, -0.7375199794769287, -1.359952688217163 },
},
{
{
-0.014730677008628845, 0.018698275089263916, 0.030828658491373062 },
},
{
{
-0.33619260787963867, -0.1000509038567543, 0.22333335876464844 },
},
{
{
0.45242545008659363, 0.30877482891082764, -0.056302011013031006 },
},
{
{
0.3512670397758484, 0.14438892900943756, -0.2840748131275177 },
},
{
{
0.06481193751096725, -0.0844317376613617, 0.09258963167667389 },
},
{
{
-0.468770831823349, -0.03671471029520035, 0.3702167868614197 },
},
{
{
-0.14361807703971863, -0.08587934076786041, 0.040947325527668 },
},
{
{
-0.5302598476409912, -0.1891409307718277, 0.3750234842300415 },
},
{
{
0.20651167631149292, -0.13578498363494873, -0.042925864458084106 },
},
{
{
0.029566442593932152, 0.1526314616203308, -0.500504732131958 },
},
{
{
-0.7253659963607788, -0.2834016680717468, -0.0936800166964531 },
},
{
{
0.2404482513666153, 0.28390413522720337, 0.03320745378732681 },
},
{
{
0.8031426072120667, 0.8131478428840637, 0.8454024791717529 },
},
{
{
0.6016074419021606, 0.4810035526752472, 0.23519954085350037 },
},
{
{
-0.5481172800064087, 0.5836353898048401, 0.551324725151062 },
},
{
{
-2.581364631652832, -0.04992219805717468, 0.26659879088401794 },
},
{
{
-0.33420342206954956, -0.03214211389422417, 0.07344628125429153 },
},
},
{
{
{
0.05871611833572388, 0.061429835855960846, -0.05202271044254303 },
},
{
{
-0.060541145503520966, -0.11064532399177551, 0.031958356499671936 },
},
{
{
0.00019214494386687875, 0.022275978699326515, 0.015884963795542717 },
},
{
{
-0.10075652599334717, -0.04685531184077263, -0.04676344245672226 },
},
{
{
0.05548647418618202, 0.0485219731926918, -0.04178342968225479 },
},
{
{
0.0315331406891346, -0.0819787010550499, 0.06301434338092804 },
},
{
{
-0.08902575075626373, -0.07443545758724213, -0.05822072923183441 },
},
{
{
-0.07606276124715805, 0.08010680973529816, -0.0666259303689003 },
},
{
{
0.018991908058524132, -0.035809360444545746, -0.03441179543733597 },
},
{
{
-0.08133746683597565, -0.05852256715297699, -0.0072215525433421135 },
},
{
{
0.03201518952846527, -0.07117368280887604, 0.04471363127231598 },
},
{
{
-0.046500787138938904, -0.03283507749438286, 0.03864968568086624 },
},
{
{
-0.024237819015979767, 0.05899956449866295, -0.004144225735217333 },
},
{
{
-0.06431856006383896, 0.06917030364274979, -0.09820006787776947 },
},
{
{
0.025596845895051956, 0.07762773334980011, -0.05534776672720909 },
},
{
{
-0.08459672331809998, 0.044428616762161255, -0.03903280943632126 },
},
{
{
0.0832584947347641, 0.06854794174432755, -0.013239985331892967 },
},
{
{
-0.021359296515583992, 0.02519160322844982, -0.057184092700481415 },
},
{
{
-0.10999074578285217, -0.10392284393310547, -0.12453760206699371 },
},
{
{
-0.021240390837192535, -0.028195634484291077, -0.05255107954144478 },
},
{
{
-0.03174840286374092, -0.036453019827604294, 0.0005818020435981452 },
},
{
{
-0.049655504524707794, 0.03015550971031189, 0.0505947545170784 },
},
{
{
0.059587717056274414, -0.0907147154211998, 0.04034508019685745 },
},
{
{
-0.09501590579748154, 0.05374244600534439, 0.041935816407203674 },
},
{
{
-0.021579934284090996, -0.09072981774806976, 0.045771483331918716 },
},
{
{
-0.10705308616161346, 0.007592717185616493, -0.015437898226082325 },
},
{
{
0.010690150782465935, -0.06176014244556427, -0.07770310342311859 },
},
{
{
-0.03676541894674301, -0.022669248282909393, -0.017425494268536568 },
},
{
{
-0.0007650146726518869, -0.06886489689350128, -0.08460589498281479 },
},
{
{
-0.09490274637937546, -0.04145525023341179, -0.0004832322592847049 },
},
{
{
-0.0781615599989891, -0.01880977302789688, 0.034340858459472656 },
},
{
{
-0.020268717780709267, 0.00928910169750452, 0.059101130813360214 },
},
},
{
{
{
-0.11346590518951416, -0.20249038934707642, -0.32383185625076294 },
},
{
{
-0.14094063639640808, -0.2318277359008789, -0.3806823194026947 },
},
{
{
-1.1800543069839478, -0.6714655756950378, -0.32304447889328003 },
},
{
{
0.023027054965496063, 0.06979259103536606, -0.0696757510304451 },
},
{
{
-0.19040736556053162, -0.2611390948295593, -0.26497015357017517 },
},
{
{
0.3623487949371338, 0.3113080561161041, -0.1216769814491272 },
},
{
{
-0.5235202312469482, 0.47013232111930847, 0.08760803192853928 },
},
{
{
-0.024079618975520134, -0.05714995414018631, 0.06709481030702591 },
},
{
{
-0.1436978131532669, -0.24568568170070648, -0.38581910729408264 },
},
{
{
0.01069939136505127, -0.03822948783636093, -0.19321908056735992 },
},
{
{
0.529499351978302, 0.6506392955780029, -0.13589440286159515 },
},
{
{
-0.035064827650785446, -0.11228660494089127, -0.36342811584472656 },
},
{
{
-0.5379165410995483, 0.13740061223506927, 0.5343276858329773 },
},
{
{
0.09914204478263855, -0.02191394381225109, -0.36698201298713684 },
},
{
{
0.2673019766807556, 0.22141924500465393, -0.3154973089694977 },
},
{
{
-0.029007794335484505, -0.25822460651397705, -0.5238007307052612 },
},
{
{
0.1419970542192459, 0.24795643985271454, -0.40242335200309753 },
},
{
{
-0.5807967782020569, -0.5359476208686829, -0.38977429270744324 },
},
{
{
-1.4946627616882324, -1.5345256328582764, -0.48315438628196716 },
},
{
{
-0.0660196915268898, -0.018150694668293, -0.0922730416059494 },
},
{
{
-0.2570608854293823, -0.2685014307498932, -0.193650022149086 },
},
{
{
-0.6863419413566589, -0.15762704610824585, 0.10079468041658401 },
},
{
{
-0.32007354497909546, -0.29446834325790405, 0.0029576029628515244 },
},
{
{
0.015015668235719204, -0.03227027505636215, -0.0992601215839386 },
},
{
{
0.3414784371852875, 0.2447226345539093, -0.30309000611305237 },
},
{
{
-0.507672131061554, -0.28632864356040955, 0.11169438809156418 },
},
{
{
-0.47337621450424194, -0.4181162118911743, -0.2508692443370819 },
},
{
{
0.011648856103420258, 0.049738164991140366, -0.0705261379480362 },
},
{
{
-0.15697896480560303, -0.745815634727478, -0.0762958973646164 },
},
{
{
-0.0448441319167614, -0.044610053300857544, -0.12981662154197693 },
},
{
{
-0.14249517023563385, -0.2376748025417328, -0.15702958405017853 },
},
{
{
-0.019297990947961807, 0.43677443265914917, -0.26630061864852905 },
},
},
{
{
{
0.007588712498545647, 0.0742139220237732, -0.3165397047996521 },
},
{
{
-0.3127419650554657, -0.12351933866739273, -0.12191251665353775 },
},
{
{
0.13357478380203247, 0.25464490056037903, -0.31617471575737 },
},
{
{
0.008167367428541183, -0.010929388925433159, 0.05021708458662033 },
},
{
{
-0.21912145614624023, 0.12419112771749496, -0.8240153193473816 },
},
{
{
-0.14339272677898407, -0.09328946471214294, 0.016352877020835876 },
},
{
{
-0.2338581383228302, -0.14962312579154968, -0.10816191136837006 },
},
{
{
0.051671721041202545, -0.005981532856822014, -0.2976549565792084 },
},
{
{
0.2033538520336151, 0.028453031554818153, 0.224906325340271 },
},
{
{
-0.07555630803108215, 0.5805165767669678, -1.0065191984176636 },
},
{
{
-0.2674565017223358, -0.28163623809814453, -0.17359741032123566 },
},
{
{
-0.15252438187599182, -0.0036663832142949104, -0.11144648492336273 },
},
{
{
0.16207408905029297, 0.1526923030614853, -0.42771172523498535 },
},
{
{
-0.42223501205444336, -0.29445335268974304, 0.017155075445771217 },
},
{
{
-0.25713661313056946, -0.3723863363265991, -0.05115506798028946 },
},
{
{
-0.34586745500564575, -0.3224714398384094, -0.3929693102836609 },
},
{
{
-0.02786686085164547, -0.1585027128458023, -0.23154282569885254 },
},
{
{
-0.2802155315876007, -0.2668830156326294, -0.1257915049791336 },
},
{
{
-0.10121457278728485, 0.006114662624895573, -0.2099824845790863 },
},
{
{
-0.08974076062440872, 0.023788241669535637, -0.01782715693116188 },
},
{
{
-0.35506540536880493, 0.3773510158061981, -0.6484542489051819 },
},
{
{
-0.14989833533763885, -0.1562773734331131, -0.24797391891479492 },
},
{
{
-0.07805214822292328, -0.06261003017425537, -0.39101672172546387 },
},
{
{
-0.016470087692141533, -0.07784048467874527, 0.03362143039703369 },
},
{
{
-0.10394951701164246, -0.03401120379567146, -0.09538159519433975 },
},
{
{
0.12651576101779938, 0.11420009285211563, 0.08063645660877228 },
},
{
{
-0.13001488149166107, -0.23303455114364624, -0.01712009124457836 },
},
{
{
-0.02047169953584671, 0.7288506031036377, -0.23324520885944366 },
},
{
{
-0.2715977430343628, -0.17240427434444427, -0.010107158683240414 },
},
{
{
0.2986428439617157, 0.30310341715812683, 0.5698859095573425 },
},
{
{
-0.526129424571991, -0.6161341071128845, -1.274599552154541 },
},
{
{
-0.24454309046268463, -0.3053935170173645, -0.24931153655052185 },
},
},
{
{
{
-0.021049099043011665, 0.17892862856388092, 0.27958813309669495 },
},
{
{
-0.20248600840568542, -0.20459555089473724, -0.08935578912496567 },
},
{
{
-0.1591852903366089, -0.22221127152442932, 0.16169652342796326 },
},
{
{
0.07279861718416214, 0.06747760623693466, -0.03136705607175827 },
},
{
{
-0.23220843076705933, -0.6478818655014038, -0.33281803131103516 },
},
{
{
-0.05628427863121033, -0.024009479209780693, -0.012486346997320652 },
},
{
{
-0.11720754951238632, -0.573296844959259, -0.003447993891313672 },
},
{
{
-0.20572488009929657, -0.6438125967979431, -0.2917979955673218 },
},
{
{
-0.1647719293832779, 0.0959509089589119, 0.24292080104351044 },
},
{
{
-0.12045464664697647, 0.6255731582641602, -0.06720326840877533 },
},
{
{
0.1380992829799652, 0.22099246084690094, 0.186045840382576 },
},
{
{
-0.16555796563625336, 0.11569390445947647, -0.17233753204345703 },
},
{
{
-0.0494503378868103, 0.1451609879732132, 0.13052651286125183 },
},
{
{
-0.1467127501964569, 0.15880714356899261, 0.08753520250320435 },
},
{
{
-0.09140416979789734, -0.10096604377031326, -0.1161644235253334 },
},
{
{
-0.17797774076461792, -0.04669328033924103, 0.08511681854724884 },
},
{
{
-0.0840020701289177, -0.4931435286998749, -0.1164310872554779 },
},
{
{
-0.05149979144334793, 0.00608825171366334, -0.32411259412765503 },
},
{
{
-0.241731658577919, -0.4035555422306061, -0.1324605643749237 },
},
{
{
0.09760840237140656, 0.056762125343084335, 0.05990689992904663 },
},
{
{
-1.591212272644043, -0.30376797914505005, 0.9060863256454468 },
},
{
{
-0.009386299178004265, 0.005467413924634457, -0.11983305960893631 },
},
{
{
-0.04953807219862938, 0.008181537501513958, 0.17482978105545044 },
},
{
{
-0.02789730578660965, 0.03539588674902916, 0.08120324462652206 },
},
{
{
-0.20382970571517944, 0.03164004534482956, -0.26471319794654846 },
},
{
{
-0.10066454112529755, -0.15508180856704712, 0.058387480676174164 },
},
{
{
0.014707332476973534, 0.04559684544801712, 0.1729808896780014 },
},
{
{
-0.32031482458114624, -0.8556697368621826, 0.04149407148361206 },
},
{
{
0.10248863697052002, -0.39212948083877563, -0.1575745791196823 },
},
{
{
-0.64298415184021, -0.23617245256900787, 0.04240236431360245 },
},
{
{
-1.0420767068862915, -0.44751229882240295, 0.030565068125724792 },
},
{
{
-0.17269845306873322, -0.3692513704299927, -0.0037909976672381163 },
},
},
{
{
{
-0.3943866193294525, -0.555500864982605, -0.6997303366661072 },
},
{
{
0.38684895634651184, 0.3934299945831299, -1.0590914487838745 },
},
{
{
-0.02262234129011631, -0.1004118099808693, -0.7327555418014526 },
},
{
{
0.01683785393834114, -0.0660979375243187, -0.08888278901576996 },
},
{
{
-1.384962797164917, -1.0159624814987183, -0.2864159941673279 },
},
{
{
0.4866451919078827, 0.38908904790878296, -1.1337114572525024 },
},
{
{
-0.02416471391916275, 0.07249817997217178, -0.08245164155960083 },
},
{
{
-0.17979060113430023, -0.29170408844947815, -0.20289058983325958 },
},
{
{
-1.2995872497558594, -1.3937214612960815, -0.4309103786945343 },
},
{
{
-1.5241249799728394, -0.9306060075759888, -0.16937604546546936 },
},
{
{
0.37689128518104553, 0.3392958641052246, -0.7494581937789917 },
},
{
{
-0.032111939042806625, 0.11407537758350372, -0.8650528192520142 },
},
{
{
0.36205950379371643, 0.3716139793395996, -0.7687641382217407 },
},
{
{
0.6693093180656433, 0.6822960376739502, -0.8657934665679932 },
},
{
{
0.9045284390449524, 0.7767635583877563, -1.0648484230041504 },
},
{
{
0.7297006845474243, 0.7294330596923828, -0.948512077331543 },
},
{
{
0.01118673849850893, 0.02146155759692192, -0.07685133069753647 },
},
{
{
0.362455278635025, 0.29985034465789795, -0.7421246767044067 },
},
{
{
-0.17186841368675232, -0.1715911328792572, -0.8196218609809875 },
},
{
{
-0.056541405618190765, -0.09684037417173386, -0.027299311012029648 },
},
{
{
0.07762867957353592, -0.16135241091251373, -0.0046986923553049564 },
},
{
{
-0.11055650562047958, 0.06423653662204742, -0.27180612087249756 },
},
{
{
0.007744735572487116, 0.09126325696706772, -0.5288883447647095 },
},
{
{
0.041726019233465195, 0.05275828763842583, -0.05248356610536575 },
},
{
{
0.14888407289981842, 0.27838364243507385, -0.8761327266693115 },
},
{
{
-1.4707164764404297, -1.667391300201416, -0.5686618685722351 },
},
{
{
-0.11018966138362885, -0.08799335360527039, -0.29229968786239624 },
},
{
{
-0.1511068344116211, -0.43990546464920044, 0.09090328961610794 },
},
{
{
-0.35783231258392334, -0.6702913641929626, -0.49706488847732544 },
},
{
{
-0.8084880113601685, -0.3686177432537079, -0.4750289022922516 },
},
{
{
-0.7386360764503479, -0.022850146517157555, 0.014551946893334389 },
},
{
{
0.16523726284503937, -0.2174176275730133, -0.7092491984367371 },
},
},
{
{
{
-0.07550684362649918, 0.08157379925251007, -0.11164049059152603 },
},
{
{
-0.02342808060348034, -0.15025995671749115, 0.011715716682374477 },
},
{
{
0.02556435577571392, -0.4919860064983368, -0.2882150113582611 },
},
{
{
-0.05577778443694115, 0.03973283991217613, 0.017323417589068413 },
},
{
{
-1.8652019500732422, -0.56898033618927, -0.5506227612495422 },
},
{
{
-0.09102758765220642, -0.08963315188884735, 0.12914568185806274 },
},
{
{
0.06025521829724312, -0.35803332924842834, 0.7500378489494324 },
},
{
{
-0.11417794227600098, -0.04375423863530159, 0.005486405920237303 },
},
{
{
-0.09636620432138443, -0.18450836837291718, -0.18653540313243866 },
},
{
{
-2.5237929821014404, -0.8040379881858826, -0.8500718474388123 },
},
{
{
-0.04660429805517197, -0.003965505864471197, 0.0926957055926323 },
},
{
{
-0.1256217658519745, 0.07747481018304825, 0.2031087577342987 },
},
{
{
0.010303989984095097, 0.015899935737252235, 0.08081650733947754 },
},
{
{
-0.14759115874767303, 0.09658121317625046, 0.16081424057483673 },
},
{
{
-0.10947471112012863, -0.1369045376777649, 0.05249035730957985 },
},
{
{
-0.13868485391139984, -0.4102364778518677, -0.2779059112071991 },
},
{
{
0.023560108616948128, -0.5180221796035767, 0.10581129044294357 },
},
{
{
-0.1369641274213791, 0.050447773188352585, -0.02193911373615265 },
},
{
{
-0.0051166038028895855, -0.056293830275535583, -0.06202574074268341 },
},
{
{
-0.024836018681526184, 0.0740046352148056, 0.07739470154047012 },
},
{
{
0.14744333922863007, 0.09247086942195892, 0.07226728647947311 },
},
{
{
-0.0869283378124237, 0.09800298511981964, -0.0033268050756305456 },
},
{
{
-0.0855933129787445, 0.2757366895675659, -0.1914006918668747 },
},
{
{
0.07922970503568649, -0.010393451899290085, -0.04991402104496956 },
},
{
{
-0.16556403040885925, 0.09260093420743942, 0.24617625772953033 },
},
{
{
-0.16007959842681885, -0.16246962547302246, -0.18347309529781342 },
},
{
{
-0.04170406609773636, 0.11968065053224564, 0.1748470813035965 },
},
{
{
-0.11314916610717773, 0.05308565869927406, -0.025773057714104652 },
},
{
{
0.1325749158859253, -0.13956378400325775, 0.1220257580280304 },
},
{
{
0.005539515987038612, 0.1266854852437973, 0.034091539680957794 },
},
{
{
-0.011057805269956589, -0.013056548312306404, 0.13189741969108582 },
},
{
{
0.016833879053592682, -0.08831468224525452, 0.13697399199008942 },
},
},
{
{
{
0.3448505997657776, -0.3412573039531708, -1.1268360614776611 },
},
{
{
0.2972753942012787, 0.08501940220594406, -1.0759457349777222 },
},
{
{
0.911160409450531, -0.03424565866589546, -1.313153862953186 },
},
{
{
0.039770714938640594, 0.07834043353796005, -0.06553003937005997 },
},
{
{
0.6316226720809937, 0.1591663509607315, -0.1303519606590271 },
},
{
{
0.002212883671745658, 0.35032427310943604, 0.013254554942250252 },
},
{
{
0.2942161560058594, -0.06912482529878616, -1.2405815124511719 },
},
{
{
-0.12928012013435364, -0.4993814527988434, -1.2062695026397705 },
},
{
{
0.2504539489746094, -0.0518709234893322, -1.1637755632400513 },
},
{
{
0.3279830813407898, -1.3870395421981812, -0.07024291157722473 },
},
{
{
-0.29428011178970337, -1.883770227432251, -0.08499492704868317 },
},
{
{
-0.5100103616714478, -0.45023518800735474, 0.011792654171586037 },
},
{
{
0.40572139620780945, -0.25434228777885437, -1.154388427734375 },
},
{
{
-0.08252359926700592, -1.2878261804580688, -0.09904011338949203 },
},
{
{
0.07993721961975098, -0.3914957642555237, -0.876686692237854 },
},
{
{
0.7134353518486023, -0.20796740055084229, -1.2571581602096558 },
},
{
{
-0.1792421191930771, 0.013747073709964752, -1.1365731954574585 },
},
{
{
-0.19378827512264252, -2.371124029159546, -0.048765916377305984 },
},
{
{
-0.1579900085926056, -1.029749870300293, -1.1235910654067993 },
},
{
{
0.07026852667331696, 0.029062528163194656, -0.0010057763429358602 },
},
{
{
-0.06499315798282623, 0.26440662145614624, -1.2256895303726196 },
},
{
{
0.1752978265285492, -0.34664714336395264, -1.1711814403533936 },
},
{
{
0.5321249961853027, -0.26589563488960266, -1.2666921615600586 },
},
{
{
0.1314355581998825, -0.005416498985141516, 0.023913370445370674 },
},
{
{
0.05654657632112503, -0.7275338172912598, -1.022437334060669 },
},
{
{
-0.08697092533111572, -0.563177764415741, -0.011789857409894466 },
},
{
{
-0.0650620311498642, 1.012357473373413, -0.020168880000710487 },
},
{
{
1.0182242393493652, -3.260030746459961, -0.1725963056087494 },
},
{
{
-0.49440374970436096, -2.0901784896850586, -0.039225973188877106 },
},
{
{
0.7981759309768677, 0.12550605833530426, -1.0894784927368164 },
},
{
{
0.7446821928024292, 0.019345665350556374, -1.198354721069336 },
},
{
{
0.33036044239997864, 0.201793372631073, -0.9733061790466309 },
},
},
{
{
{
0.5060524940490723, 0.32730451226234436, -0.7636116743087769 },
},
{
{
0.201462060213089, 0.20153585076332092, -0.3341781795024872 },
},
{
{
0.6374606490135193, 0.16284167766571045, -0.7808482050895691 },
},
{
{
0.07895660400390625, 0.0407288558781147, -0.06485876441001892 },
},
{
{
0.6236206889152527, 0.2360965460538864, 0.17827342450618744 },
},
{
{
-0.12749867141246796, 0.07226348668336868, 0.4710128605365753 },
},
{
{
-0.1132761612534523, -0.2590082883834839, -0.20222322642803192 },
},
{
{
0.3185937702655792, 0.2730386555194855, -0.39994215965270996 },
},
{
{
0.22677794098854065, -0.00857097189873457, -0.29306718707084656 },
},
{
{
0.3826664090156555, 0.25533244013786316, 0.13966837525367737 },
},
{
{
-0.15988941490650177, -0.12242361903190613, 0.05261872336268425 },
},
{
{
-0.07558406889438629, 0.07472634315490723, 0.027677316218614578 },
},
{
{
0.4170428514480591, 0.15979474782943726, -1.0308631658554077 },
},
{
{
-0.14156194031238556, -0.272745817899704, -0.464954674243927 },
},
{
{
-0.3385249674320221, -0.2897242307662964, 0.30506306886672974 },
},
{
{
0.2605186402797699, 0.03189697116613388, -0.545330286026001 },
},
{
{
-0.07900476455688477, -0.2606288492679596, -0.4395780563354492 },
},
{
{
-0.02006463333964348, -0.024897992610931396, -0.719249963760376 },
},
{
{
0.2505549192428589, 0.43116703629493713, -0.7340101003646851 },
},
{
{
0.05944817513227463, -0.053086258471012115, -0.08836781978607178 },
},
{
{
0.41360998153686523, -0.16614395380020142, 0.054450731724500656 },
},
{
{
-0.13882316648960114, -0.20428219437599182, -0.06255693733692169 },
},
{
{
0.5100911855697632, 0.34978771209716797, -0.5109334588050842 },
},
{
{
-0.028613153845071793, -0.057402536273002625, -0.08949841558933258 },
},
{
{
0.04240633547306061, 0.09362240135669708, -0.813998281955719 },
},
{
{
0.40309640765190125, 0.42563149333000183, -0.03508133813738823 },
},
{
{
0.21008533239364624, 0.2601526975631714, 0.13816553354263306 },
},
{
{
0.48301637172698975, 0.10156995803117752, -0.020064227283000946 },
},
{
{
-0.061727918684482574, 0.29770514369010925, -0.28120240569114685 },
},
{
{
-0.22779858112335205, -0.3278394341468811, -0.3043726682662964 },
},
{
{
-0.06745428591966629, -0.36672142148017883, -0.09099172055721283 },
},
{
{
-0.27148571610450745, -0.23498022556304932, -0.6794033646583557 },
},
},
{
{
{
-1.461622714996338, -0.14744076132774353, -0.027261633425951004 },
},
{
{
-0.32661136984825134, 0.05168723687529564, 0.08195457607507706 },
},
{
{
-1.531015396118164, 0.12269013375043869, 0.2318429946899414 },
},
{
{
0.0015186169184744358, 0.09659072756767273, 0.07199874520301819 },
},
{
{
0.4783551096916199, 1.425673246383667, 0.8359118700027466 },
},
{
{
-0.3605607748031616, 0.06467276811599731, -0.08273745328187943 },
},
{
{
-0.6197051405906677, -0.08096987754106522, -0.25140658020973206 },
},
{
{
-0.863140881061554, -0.014173092320561409, -0.023501574993133545 },
},
{
{
-0.585302472114563, 0.20924456417560577, 0.22364442050457 },
},
{
{
0.43173283338546753, 1.139586329460144, 0.3277888894081116 },
},
{
{
-0.21309275925159454, 0.11402089893817902, 0.053442008793354034 },
},
{
{
-0.5135356783866882, -0.13845938444137573, -0.1708359271287918 },
},
{
{
-0.637739360332489, 0.4108305871486664, 0.683290958404541 },
},
{
{
-0.2208072394132614, -0.04371783137321472, -0.03274894878268242 },
},
{
{
-0.1397702991962433, 0.03995381295681, -0.027732636779546738 },
},
{
{
-0.9678573608398438, 0.055781710892915726, 0.18192143738269806 },
},
{
{
-0.10307033360004425, -0.07462140917778015, -0.14174294471740723 },
},
{
{
-0.119797483086586, -0.30393287539482117, -0.3474207818508148 },
},
{
{
-0.6777017712593079, -0.009010718204081059, 0.029854105785489082 },
},
{
{
-0.09352847933769226, -0.05104710906744003, 0.08962583541870117 },
},
{
{
0.23079529404640198, 1.1431951522827148, 0.24928148090839386 },
},
{
{
-0.3939065635204315, -0.20125888288021088, -0.5346819162368774 },
},
{
{
-1.1717816591262817, -0.038548026233911514, 0.23540659248828888 },
},
{
{
-0.08736833930015564, 0.027572927996516228, 0.06596432626247406 },
},
{
{
-0.32831883430480957, -0.2570067346096039, -0.1564096063375473 },
},
{
{
-0.39236995577812195, 0.27377697825431824, 0.004629223141819239 },
},
{
{
-0.27015945315361023, -0.28044089674949646, -0.18222345411777496 },
},
{
{
-0.42178040742874146, 0.9595009684562683, 0.5827984809875488 },
},
{
{
-0.11139284819364548, -0.3368387222290039, -0.27527159452438354 },
},
{
{
0.08455604314804077, -0.4257582128047943, -0.3015366792678833 },
},
{
{
-0.32444629073143005, -3.5100035667419434, -0.9934214353561401 },
},
{
{
-0.21716271340847015, 0.5049346685409546, -0.022779330611228943 },
},
},
{
{
{
0.06940270215272903, 0.255027174949646, -0.4966799318790436 },
},
{
{
0.1751757562160492, 0.23397958278656006, -0.43484658002853394 },
},
{
{
0.49722445011138916, 0.24682502448558807, -0.8939584493637085 },
},
{
{
0.034814830869436264, 0.07170325517654419, -0.07375184446573257 },
},
{
{
-0.20666056871414185, 0.2861260771751404, 0.1403239369392395 },
},
{
{
0.24087466299533844, 0.17490367591381073, -0.28126049041748047 },
},
{
{
0.015500498935580254, -0.008521716110408306, -0.17523619532585144 },
},
{
{
-0.18908178806304932, -0.20310141146183014, -0.3010215163230896 },
},
{
{
-0.08487575501203537, -0.14059612154960632, -0.5354166030883789 },
},
{
{
-0.5501769781112671, -0.053783394396305084, -0.3972667455673218 },
},
{
{
0.2825595438480377, 0.2597990930080414, -0.24596640467643738 },
},
{
{
-0.4325867295265198, -0.2971084713935852, -0.3759785592556 },
},
{
{
0.060769710689783096, -0.14053913950920105, -0.5036653280258179 },
},
{
{
-0.2749418318271637, -0.15058307349681854, -0.16352249681949615 },
},
{
{
0.19801750779151917, 0.1485789716243744, -0.2372538447380066 },
},
{
{
0.4371420443058014, 0.39699140191078186, -0.393855482339859 },
},
{
{
0.6876506209373474, -0.3044795095920563, -0.3789161443710327 },
},
{
{
-0.09676016122102737, -0.08707220107316971, -0.21362018585205078 },
},
{
{
0.02971559576690197, -0.09002882987260818, -0.39580702781677246 },
},
{
{
-0.09916295856237411, -0.06497477740049362, 0.038693565875291824 },
},
{
{
0.6016131639480591, 0.9548156261444092, -0.023966217413544655 },
},
{
{
-0.2698638439178467, -0.039951927959918976, -0.19014036655426025 },
},
{
{
0.16301387548446655, -0.0044636912643909454, -0.6532073616981506 },
},
{
{
-0.053214408457279205, 0.0010678506223484874, -0.05833277478814125 },
},
{
{
0.25335952639579773, 0.17735855281352997, -0.18948733806610107 },
},
{
{
0.22817642986774445, 0.2234816551208496, -0.3281952738761902 },
},
{
{
-0.6110039353370667, -0.22276325523853302, -0.24521826207637787 },
},
{
{
-0.4853828251361847, -0.16821622848510742, -0.47982218861579895 },
},
{
{
0.36691561341285706, 0.42503175139427185, 0.05807803198695183 },
},
{
{
-0.16657225787639618, -0.011677591130137444, 0.12382330000400543 },
},
{
{
-2.157820463180542, -2.006211042404175, -0.9236425161361694 },
},
{
{
0.13898307085037231, 0.3527575433254242, 0.004272405058145523 },
},
},
{
{
{
0.05253363773226738, 0.008241728879511356, 0.12265490740537643 },
},
{
{
0.03196196258068085, 0.054863445460796356, 0.03673422709107399 },
},
{
{
0.18666866421699524, 0.2284136563539505, 0.23812851309776306 },
},
{
{
0.002584424102678895, 0.10190578550100327, 0.08533694595098495 },
},
{
{
-0.8995797634124756, -1.528387427330017, -1.3155853748321533 },
},
{
{
0.10579023510217667, -0.007529495283961296, 0.13876262307167053 },
},
{
{
-0.0296157319098711, 0.003753569908440113, 0.1096791923046112 },
},
{
{
-0.10508129000663757, 0.014767039567232132, -0.11617473512887955 },
},
{
{
0.13129012286663055, 0.14801649749279022, 0.1383538693189621 },
},
{
{
0.27366283535957336, -0.12626372277736664, -0.017808135598897934 },
},
{
{
0.06735678017139435, -0.04851505532860756, -0.11660506576299667 },
},
{
{
0.04249686375260353, 0.04083739593625069, 0.11862403899431229 },
},
{
{
0.09185032546520233, 0.14464375376701355, 0.08099641650915146 },
},
{
{
0.13995963335037231, 0.06041286140680313, -0.018826628103852272 },
},
{
{
-0.03081648051738739, 0.04285924881696701, -0.08959386497735977 },
},
{
{
0.008075688034296036, -0.03662096709012985, 0.03911750391125679 },
},
{
{
0.05236595496535301, 0.0007929214043542743, 0.000275533675448969 },
},
{
{
-0.19051910936832428, -0.11296650022268295, -0.20895564556121826 },
},
{
{
0.031184494495391846, -0.13196681439876556, 0.058181557804346085 },
},
{
{
-0.09120989590883255, -0.0754244327545166, -0.01773679442703724 },
},
{
{
-0.35359781980514526, -0.020405955612659454, 0.0862896591424942 },
},
{
{
0.033955298364162445, 0.015065130777657032, 0.017305904999375343 },
},
{
{
0.19430097937583923, 0.05376983806490898, 0.09420804679393768 },
},
{
{
0.00506490608677268, 0.057691242545843124, 0.07130056619644165 },
},
{
{
-0.008639265783131123, -0.09641309827566147, -0.1748947948217392 },
},
{
{
0.09125363826751709, 0.14394308626651764, 0.04239281639456749 },
},
{
{
-0.018819991499185562, -0.061896417289972305, -0.016312239691615105 },
},
{
{
-0.7139824628829956, 0.25858792662620544, -0.2106468826532364 },
},
{
{
-0.08592550456523895, -0.18725714087486267, -0.22155937552452087 },
},
{
{
0.037914130836725235, 0.01919477991759777, -0.02372891642153263 },
},
{
{
0.07746689766645432, 0.007465498521924019, -0.07725989073514938 },
},
{
{
0.08393979072570801, -0.052358757704496384, -0.017121896147727966 },
},
},
{
{
{
-0.24903583526611328, -2.091313123703003, -0.10825739800930023 },
},
{
{
0.17947730422019958, 0.06348499655723572, -0.14555948972702026 },
},
{
{
-0.03821510449051857, -1.4986011981964111, -0.05978294089436531 },
},
{
{
0.06239636242389679, -0.03875717520713806, -0.009867852553725243 },
},
{
{
-0.8092476725578308, -0.38432860374450684, -0.4951038956642151 },
},
{
{
0.11286316066980362, 0.49195191264152527, 0.028577106073498726 },
},
{
{
0.15408149361610413, 0.13834604620933533, -0.43365564942359924 },
},
{
{
0.10708428174257278, 0.390312135219574, 0.011763039045035839 },
},
{
{
-0.3092595338821411, -2.110661268234253, -0.45621809363365173 },
},
{
{
-0.8228722214698792, -0.37062689661979675, -0.6172003746032715 },
},
{
{
0.00122360500972718, 0.49847444891929626, -0.03625669702887535 },
},
{
{
-0.2754310369491577, -0.11256983876228333, -0.3214989900588989 },
},
{
{
0.20166651904582977, -0.4472360908985138, -0.15252751111984253 },
},
{
{
0.1970060020685196, -0.0458807609975338, -0.29015710949897766 },
},
{
{
0.024575039744377136, 0.2287496030330658, -0.1720365434885025 },
},
{
{
0.04805949330329895, -0.5392026901245117, -0.29560837149620056 },
},
{
{
0.48845037817955017, 0.10654982924461365, -0.8338847756385803 },
},
{
{
0.16932381689548492, 0.3341151475906372, -0.13726678490638733 },
},
{
{
0.07644567638635635, 0.033942196518182755, -0.12476495653390884 },
},
{
{
0.03135451301932335, -0.10163410753011703, -0.02186807431280613 },
},
{
{
-0.07336744666099548, -0.022215047851204872, -0.07207926362752914 },
},
{
{
-0.11238312721252441, 0.16014651954174042, -0.14385323226451874 },
},
{
{
-0.4605211317539215, -1.9090970754623413, -0.4296625554561615 },
},
{
{
-0.06401481479406357, -0.0845751166343689, -0.03809668496251106 },
},
{
{
-0.27667081356048584, 0.1436452567577362, -0.050722744315862656 },
},
{
{
-0.05568213015794754, -0.5236253142356873, 0.19844593107700348 },
},
{
{
-0.07685346156358719, -0.37520843744277954, -0.08341272175312042 },
},
{
{
-0.07654450088739395, 0.05048138275742531, 0.14580607414245605 },
},
{
{
0.08431226015090942, -1.1080219745635986, 0.004268674645572901 },
},
{
{
-0.25971564650535583, -0.20127418637275696, -0.24546180665493011 },
},
{
{
-0.04497787728905678, 0.052115168422460556, 0.034346651285886765 },
},
{
{
0.11462750285863876, -0.4015791118144989, -0.2270658016204834 },
},
},
{
{
{
-0.32365912199020386, 0.1084655299782753, 0.18706586956977844 },
},
{
{
0.6539452075958252, -0.9833673238754272, -0.16206887364387512 },
},
{
{
-0.2618788182735443, -0.646176278591156, 0.017814774066209793 },
},
{
{
0.05909650772809982, 0.050762031227350235, 0.09563830494880676 },
},
{
{
-0.9365797638893127, -0.7242969274520874, -0.26574763655662537 },
},
{
{
1.3487684726715088, -0.7990148067474365, 0.03093305230140686 },
},
{
{
0.19446228444576263, -0.3932967782020569, -0.2003800868988037 },
},
{
{
-0.14569039642810822, -0.6118019819259644, 0.12054819613695145 },
},
{
{
0.461302250623703, -0.31852442026138306, -0.1980479210615158 },
},
{
{
-1.058046817779541, -0.43830737471580505, -0.07907339930534363 },
},
{
{
0.37028735876083374, -0.8188624382019043, -0.25574570894241333 },
},
{
{
0.8366865515708923, -1.0940494537353516, -0.005949782207608223 },
},
{
{
0.5663061738014221, -0.67691969871521, -0.5213054418563843 },
},
{
{
0.9111151695251465, -1.0151009559631348, -0.10211997479200363 },
},
{
{
1.0094510316848755, -0.6865249276161194, -0.11553303152322769 },
},
{
{
-0.8472362756729126, -0.6218857169151306, -0.6669725775718689 },
},
{
{
0.18917721509933472, -0.01732848584651947, -0.11048875749111176 },
},
{
{
0.4690697193145752, -0.47607898712158203, -0.003478526370599866 },
},
{
{
0.20093175768852234, -1.6331809759140015, -0.21123245358467102 },
},
{
{
-0.09489218890666962, 0.04732855036854744, -0.041120223701000214 },
},
{
{
-0.0672319307923317, -0.3983544111251831, -0.22619132697582245 },
},
{
{
0.27915501594543457, 0.37300053238868713, -0.18562449514865875 },
},
{
{
-1.6270520687103271, 0.3324441611766815, 0.6454622745513916 },
},
{
{
0.08120311796665192, -0.03746052831411362, -0.08675894886255264 },
},
{
{
1.0230984687805176, -0.6471459865570068, -0.11018852144479752 },
},
{
{
3.0854437351226807, -1.4395015239715576, -0.5451858043670654 },
},
{
{
0.6591182947158813, -1.3633766174316406, 0.3323972821235657 },
},
{
{
-0.12125052511692047, -0.3448421061038971, 0.01690058410167694 },
},
{
{
0.4268631935119629, -0.9290784001350403, -0.23559674620628357 },
},
{
{
-0.4346223771572113, 0.2787565290927887, 0.080772764980793 },
},
{
{
-0.9385048747062683, -0.17440710961818695, -0.24550887942314148 },
},
{
{
0.7745811939239502, -0.7741528749465942, -0.2405851185321808 },
},
},
{
{
{
-1.6326818466186523, 0.6500388979911804, 0.8853262066841125 },
},
{
{
-1.5491527318954468, 0.06304669380187988, 0.22952580451965332 },
},
{
{
-0.2643892168998718, -0.21873849630355835, -0.29755377769470215 },
},
{
{
0.07671438902616501, -0.025847939774394035, 0.08246581256389618 },
},
{
{
-0.16833961009979248, 0.6527403593063354, 0.4722481667995453 },
},
{
{
-1.5614253282546997, 0.08404505997896194, 0.23253133893013 },
},
{
{
-1.2215546369552612, 0.03372630476951599, 0.1077151671051979 },
},
{
{
-1.5282615423202515, 0.5301946997642517, 0.601711094379425 },
},
{
{
-0.5394152998924255, -0.4068004786968231, -0.46914657950401306 },
},
{
{
-0.0724446028470993, 0.46248993277549744, 0.5174331068992615 },
},
{
{
-1.6533550024032593, 0.293121337890625, 0.5394341945648193 },
},
{
{
-1.5512182712554932, 0.4286167621612549, 0.642650306224823 },
},
{
{
-0.7935134172439575, 0.15629293024539948, 0.10858391970396042 },
},
{
{
-1.532782793045044, 0.13645116984844208, 0.16561448574066162 },
},
{
{
-1.612916350364685, -0.13951434195041656, 0.1776810586452484 },
},
{
{
-1.6050598621368408, 0.22491468489170074, 0.3831216096878052 },
},
{
{
-1.0566802024841309, 0.08951733261346817, 0.029149049893021584 },
},
{
{
-1.5295995473861694, 0.023337798193097115, 0.02505955658853054 },
},
{
{
-1.6630964279174805, 0.3085673451423645, 0.5155157446861267 },
},
{
{
-0.03844662010669708, -0.010336685925722122, -0.03696334734559059 },
},
{
{
-0.07482516020536423, -0.20163479447364807, 0.4715496599674225 },
},
{
{
-1.4960062503814697, 0.2785293161869049, 0.3004108667373657 },
},
{
{
-1.4013707637786865, 0.25812456011772156, 0.25415652990341187 },
},
{
{
-0.09297602623701096, 0.05239849537611008, -0.009564418345689774 },
},
{
{
-1.6334434747695923, -0.009662449359893799, 0.11410177499055862 },
},
{
{
-1.4570485353469849, 0.668232798576355, 0.6890415549278259 },
},
{
{
-1.693954586982727, 0.17564281821250916, 0.17483913898468018 },
},
{
{
-0.14418572187423706, 0.22137324512004852, 0.2840355634689331 },
},
{
{
-1.6355053186416626, 0.08230331540107727, 0.26297473907470703 },
},
{
{
-0.08134684711694717, 0.5211598873138428, -1.4329922199249268 },
},
{
{
-0.06020725145936012, -3.442298650741577, -2.0654566287994385 },
},
{
{
-1.4581032991409302, -0.20530249178409576, 0.08032570034265518 },
},
},
{
{
{
0.2691599130630493, 0.15145790576934814, -0.48859190940856934 },
},
{
{
0.11897259950637817, 0.34066006541252136, -0.3627083897590637 },
},
{
{
0.800739049911499, 0.06287450343370438, -0.8676847219467163 },
},
{
{
-0.06046777591109276, -0.053583767265081406, -0.049703147262334824 },
},
{
{
0.3558112680912018, 0.18712250888347626, -0.4101121723651886 },
},
{
{
-0.28986382484436035, -0.39384499192237854, 0.13026034832000732 },
},
{
{
0.07414276897907257, 0.02578224427998066, -0.4083424508571625 },
},
{
{
0.6401763558387756, 0.8620219826698303, -1.2130322456359863 },
},
{
{
-0.17030765116214752, -0.69524747133255, 0.6397799253463745 },
},
{
{
0.837355375289917, 0.06684911996126175, -0.23793238401412964 },
},
{
{
-0.5208495855331421, -0.2913198471069336, 0.6560856699943542 },
},
{
{
0.22710828483104706, 0.34855592250823975, -0.5480068922042847 },
},
{
{
1.5405669212341309, 1.0113019943237305, -2.941831111907959 },
},
{
{
0.010486001148819923, 0.04707970842719078, -0.5760056376457214 },
},
{
{
-0.2132723033428192, 0.028555724769830704, 0.20902909338474274 },
},
{
{
0.2275085300207138, -0.02543085254728794, -0.30800116062164307 },
},
{
{
0.2556248903274536, 0.0863637626171112, 0.1411515772342682 },
},
{
{
0.21342864632606506, 0.5187104344367981, -1.1726778745651245 },
},
{
{
0.6163551211357117, 0.8852698802947998, -1.5398457050323486 },
},
{
{
0.048700544983148575, -0.05341900512576103, 0.0936545878648758 },
},
{
{
-1.3177568912506104, -1.0539048910140991, -0.7650477290153503 },
},
{
{
0.10642097890377045, 0.13434071838855743, -0.39235562086105347 },
},
{
{
0.3954487144947052, 0.021372132003307343, -0.27071988582611084 },
},
{
{
0.11753297597169876, 0.08503104746341705, 0.012155921198427677 },
},
{
{
0.2847431004047394, 0.5544189810752869, -1.1904922723770142 },
},
{
{
0.15120147168636322, -0.25927191972732544, -0.6421644687652588 },
},
{
{
0.5042447447776794, 0.3680390417575836, 0.10531039535999298 },
},
{
{
-1.966064691543579, -0.041666433215141296, -0.3901497423648834 },
},
{
{
-0.3226342499256134, -0.19455541670322418, 0.19922266900539398 },
},
{
{
0.11316896975040436, -1.9247556924819946, -0.46999984979629517 },
},
{
{
-0.3891798257827759, -2.039053440093994, 0.3498287796974182 },
},
{
{
0.2640976011753082, 0.4632783830165863, 0.2878592610359192 },
},
},
{
{
{
-0.3377353847026825, -0.07825984060764313, -0.15710027515888214 },
},
{
{
-0.23192879557609558, -0.16660822927951813, -0.12607720494270325 },
},
{
{
-0.14063243567943573, -0.07071499526500702, 0.1128273531794548 },
},
{
{
-0.0025445292703807354, 0.0297945998609066, 0.01670221984386444 },
},
{
{
-0.2955988943576813, -0.1446547508239746, -0.35196349024772644 },
},
{
{
0.12875869870185852, 0.12489349395036697, 0.15238048136234283 },
},
{
{
0.23972736299037933, -0.1121634766459465, 0.33438360691070557 },
},
{
{
-0.28513914346694946, -0.26392003893852234, -0.46446922421455383 },
},
{
{
-0.09489275515079498, 0.2119291126728058, -0.16737423837184906 },
},
{
{
-0.019302934408187866, -0.06323181837797165, -0.3463626801967621 },
},
{
{
0.08329645544290543, 0.2812078595161438, 0.16444768011569977 },
},
{
{
-0.06442441791296005, 0.22492337226867676, 0.02883962355554104 },
},
{
{
0.014151638373732567, 0.058986764401197433, 0.2908744812011719 },
},
{
{
-0.09392138570547104, -0.1489769071340561, 0.022283870726823807 },
},
{
{
-0.27892544865608215, -0.3325577676296234, -0.31477484107017517 },
},
{
{
-0.29513639211654663, -0.32133811712265015, -0.05381282418966293 },
},
{
{
-0.16041387617588043, -0.23447170853614807, -0.37619903683662415 },
},
{
{
-0.168892502784729, -0.07483052462339401, -0.27375805377960205 },
},
{
{
-0.29265639185905457, -0.1801774650812149, -0.29520168900489807 },
},
{
{
0.07517898827791214, 0.0003030493389815092, -0.06821998953819275 },
},
{
{
-0.08190084248781204, -0.10601577907800674, -0.2501859664916992 },
},
{
{
-0.09180869907140732, -0.013540776446461678, 0.06961029767990112 },
},
{
{
0.2931050658226013, 0.578851580619812, 0.2705758810043335 },
},
{
{
0.06534810364246368, 0.05584603548049927, -0.04305075481534004 },
},
{
{
-0.21962615847587585, 0.00965606328099966, 0.034550029784440994 },
},
{
{
0.029706483706831932, 0.47294843196868896, 0.38951364159584045 },
},
{
{
0.04245912656188011, 0.10096962004899979, 0.12133180350065231 },
},
{
{
0.0555252730846405, 0.051878128200769424, -0.0426056869328022 },
},
{
{
0.12469527125358582, 0.1468881219625473, 0.01307003851979971 },
},
{
{
-0.5455981492996216, -0.46386978030204773, -0.6686756610870361 },
},
{
{
0.0799100399017334, 0.16652168333530426, -1.0346523523330688 },
},
{
{
0.1544160544872284, 0.22942976653575897, 0.07995027303695679 },
},
