// This file is computer-generated by OpTC 
 // (TODO: add creating command line here) 
 // (TODO: print creation date here ) 

 // ONNX model: 
 // produced by (TODO: ) 
 // ONNX IR version: TODO: opset 
 // Model documentation: 
 /* 

 */ 

 #include <float.h> 
 #include <math.h> 
 #include <stdbool.h> 
 #include <stdint.h> 
 #include <string.h> 
 #define MAX(X,Y) ( X > Y ? X : Y) 
 #define MIN(X,Y) ( X < Y ? X : Y) 
 #define CLIP(X,U,L) ( MAX(MIN(X,U),L) )
 #define CLIP_RELUX(X,L) ( MAX(MIN(X,L), 0) )

static const float tensor_neuralnet_small_dense_MatMul_ReadVariableOp_0[40][10] = {
{
-0.028713930398225784, 0.004634153097867966, 0.00709770992398262, -0.04158191755414009, 0.020522210747003555, 0.005603395402431488, 0.004339493811130524, -0.0008590817451477051, -0.03014051914215088, -0.03181835263967514 },
{
-0.02375427447259426, 0.020183611661195755, 0.006262205541133881, 0.012983251363039017, 0.01776118203997612, 0.03257617726922035, 0.0016962774097919464, -0.03908642381429672, -0.03271861374378204, -0.020056594163179398 },
{
-0.01618591696023941, 0.0343138687312603, -0.03451408073306084, 0.01835913583636284, -0.03502757474780083, 0.019682180136442184, 0.041273605078458786, -0.015878688544034958, -0.04984806850552559, -0.021112501621246338 },
{
0.043006960302591324, -0.014601994305849075, -0.010689903050661087, 0.048616956919431686, -0.022859621793031693, 0.02505774423480034, -0.021316541358828545, -0.0181238055229187, -0.04870280250906944, -0.025667786598205566 },
{
-0.03912388160824776, -0.0013278834521770477, -0.01981513574719429, -0.04211080074310303, 0.0159592367708683, -0.049570441246032715, -0.003425765782594681, 0.00485987588763237, 0.010439492762088776, 0.03139975294470787 },
{
0.02737300470471382, 0.0472513772547245, 0.03682925924658775, -0.0441850908100605, 0.049175407737493515, -0.044294871389865875, 0.014594804495573044, -0.04612096771597862, -0.02847052924335003, 0.01852252706885338 },
{
0.016983699053525925, 0.04509872570633888, -0.04390757158398628, -0.007895302027463913, -0.04705618694424629, 0.02968015894293785, -0.02489575184881687, -0.025422705337405205, -0.018138311803340912, -0.039209045469760895 },
{
0.006101787090301514, -0.04870324209332466, 0.01030266284942627, -0.035016439855098724, -0.03102930821478367, 0.049053918570280075, -0.013540945947170258, -0.007360674440860748, -0.027742112055420876, 0.03850039467215538 },
{
-0.013540077954530716, 0.03332008048892021, -0.04267231374979019, -0.040328990668058395, -0.03424014151096344, 0.014462221413850784, -0.012761235237121582, 0.03965559974312782, 0.021098505705595016, 0.03454596921801567 },
{
-0.026186859235167503, -0.027611076831817627, -0.0034841299057006836, 0.04262581095099449, 0.01732620969414711, 0.047658514231443405, 0.0013468973338603973, 0.011012472212314606, 0.033617209643125534, -0.013795722275972366 },
{
-0.03207339346408844, -0.019581710919737816, 0.022305618971586227, -0.01729583740234375, 0.0074534788727760315, -0.024635493755340576, -0.011104036122560501, -0.037278153002262115, -0.00012160465121269226, 0.03378519043326378 },
{
0.04623505100607872, -0.012324653565883636, 0.004211712628602982, 0.008154738694429398, -0.004735291004180908, -0.04028233140707016, -0.001749478280544281, -0.03636040538549423, -0.007869981229305267, 0.04507991299033165 },
{
-0.02789335325360298, -0.03821096569299698, -0.008078478276729584, -0.049470867961645126, -0.028776992112398148, 0.0021277666091918945, -0.010667763650417328, -0.04765603691339493, 0.018486682325601578, -0.022611701861023903 },
{
0.032018695026636124, -0.02979724481701851, -0.04258756712079048, -0.02446167543530464, -0.04203326627612114, -0.007975209504365921, 0.019337419420480728, -0.01064903661608696, 0.007964588701725006, -0.020271683111786842 },
{
-0.01084192842245102, 0.02124129608273506, -0.04318952560424805, -0.037947893142700195, 0.009471453726291656, -0.029326213523745537, 0.0002523548901081085, 0.004212368279695511, -0.013376377522945404, 0.03166899457573891 },
{
0.04581156000494957, -0.04296647384762764, -0.0018443949520587921, 0.04544684663414955, -0.0025509819388389587, 0.015860389918088913, 0.018445361405611038, -0.04414113983511925, 0.01641223207116127, -0.04086904600262642 },
{
-0.016302190721035004, -0.018425334244966507, 0.03869641199707985, 0.03596928343176842, 0.022724460810422897, 0.03330942615866661, -0.008325409144163132, -0.04206101968884468, -0.008937835693359375, -0.002696715295314789 },
{
-0.033541250973939896, -0.021748317405581474, 0.016616608947515488, -0.02513173781335354, 0.03971279039978981, -0.0017540566623210907, -0.04612581804394722, -0.040205977857112885, -0.03171907737851143, 0.01302245631814003 },
{
-0.017016589641571045, 0.02938082441687584, -0.0195180531591177, 0.0033930763602256775, 0.018650662153959274, -0.010713480412960052, 0.02084127441048622, 0.04153773561120033, -0.04940686374902725, 0.015770521014928818 },
{
-0.020780468359589577, -0.0017803683876991272, -0.008246708661317825, -0.007613182067871094, -0.035790037363767624, -0.008348606526851654, 0.030559826642274857, 0.03002103790640831, 0.044546570628881454, 0.038042809814214706 },
{
0.017549466341733932, 0.041995491832494736, 0.024579036980867386, 0.01566796377301216, 0.04881944879889488, -0.0036762580275535583, 0.010427258908748627, -0.026894593611359596, -0.003056071698665619, -0.022885417565703392 },
{
0.020074401050806046, -0.004079900681972504, 0.009417008608579636, 0.04384483024477959, 0.014523949474096298, 0.038257207721471786, -0.004728473722934723, -0.027154577895998955, 0.03625204786658287, -0.012300051748752594 },
{
0.01664428785443306, 0.020701933652162552, -0.015338193625211716, -0.029281271621584892, -0.014559447765350342, 0.0403098501265049, 0.03588959202170372, 0.02871936932206154, -0.01869060844182968, -0.015427935868501663 },
{
0.034281324595212936, 0.01849224790930748, -0.025926971808075905, -0.03124244324862957, -7.87973403930664e-05, 0.04463480785489082, -0.0402449369430542, 0.005501605570316315, -0.005608797073364258, 0.0411725677549839 },
{
-0.042175471782684326, -0.041191816329956055, -0.04531930759549141, 0.033646468073129654, 0.023444388061761856, 0.03872430697083473, 0.04307401552796364, 0.012240447103977203, -0.026863956823945045, -0.025622522458434105 },
{
0.029809001833200455, 0.017364095896482468, -0.02816004864871502, -0.03455940634012222, 0.04571438953280449, -0.013406168669462204, 0.031874943524599075, -0.03079282119870186, 0.023795869201421738, -0.03332904726266861 },
{
-0.03440218046307564, -0.028873849660158157, 0.006007373332977295, 0.033590976148843765, 0.041487228125333786, -0.017049480229616165, -0.039857614785432816, -0.033956848084926605, 0.030003156512975693, 0.03043779358267784 },
{
-0.009275257587432861, 0.04821726307272911, -0.008857227861881256, 0.025875870138406754, -0.048037003725767136, -0.026805520057678223, -0.04596602916717529, -0.042301811277866364, -0.0374048575758934, 0.03351173177361488 },
{
-0.016318023204803467, -0.02252580039203167, -0.02208353392779827, -0.03567633777856827, -0.045760106295347214, 0.04424332454800606, 0.01882927492260933, 0.003963757306337357, 0.007344890385866165, 0.017822574824094772 },
{
-0.0035691633820533752, 0.023437727242708206, -0.024591518566012383, -0.021147990599274635, 0.04139472171664238, 0.007043696939945221, 0.03416125848889351, -0.03277043253183365, -0.0035857781767845154, -0.026697291061282158 },
{
0.024237897247076035, 0.018045034259557724, -0.008016597479581833, 0.010868392884731293, 0.04522087797522545, 0.034775879234075546, -0.04053368419408798, 0.017526138573884964, -0.013331614434719086, 0.024896029382944107 },
{
-0.0022316202521324158, -0.03326290845870972, -0.005342673510313034, -0.0295493733137846, -0.027961039915680885, 0.038280073553323746, -0.009581483900547028, -0.017679821699857712, 0.0012156367301940918, -0.007249809801578522 },
{
0.004284106194972992, 0.020762357860803604, 0.003213644027709961, -0.043342139571905136, -0.03265422582626343, -0.013420186936855316, 0.022603560239076614, 0.04835626110434532, -0.04820699617266655, -0.01742703840136528 },
{
0.04485161229968071, -0.03232761472463608, 0.021054577082395554, -0.023964310064911842, 0.043034542351961136, -0.011400222778320312, 0.038140010088682175, -0.016757607460021973, 0.010431982576847076, 0.04725036397576332 },
{
0.049358975142240524, -0.00881638377904892, -0.0014778263866901398, 0.03291860595345497, -0.019578004255890846, 0.009364031255245209, -0.04040456935763359, 0.011761881411075592, -0.02727515809237957, 0.024668287485837936 },
{
-0.004861988127231598, -0.010078560560941696, 0.01918156072497368, -0.029417848214507103, -0.033733487129211426, 0.008802078664302826, 0.009238969534635544, 0.02215224876999855, 0.02869493141770363, -0.04638272523880005 },
{
0.00018459558486938477, 0.04302344098687172, -0.0493963360786438, -0.028110802173614502, -0.04581671953201294, 0.00620727613568306, 0.024058129638433456, -0.029318010434508324, 0.023224595934152603, 0.008042313158512115 },
{
0.022833850234746933, 0.033045243471860886, 0.02579624578356743, 0.03057793155312538, -0.00764073058962822, 0.02701616659760475, 0.009536586701869965, 0.04555055871605873, 0.005080830305814743, -0.0033169612288475037 },
{
0.02113136276602745, -0.033745184540748596, 0.022853408008813858, 0.012065470218658447, 0.001677095890045166, 0.03481850400567055, 0.03173995390534401, -0.015811242163181305, -0.04892390966415405, 0.022234532982110977 },
{
-0.025192929431796074, 0.0056268200278282166, -0.006070364266633987, -0.031647004187107086, 0.006100498139858246, 0.0013267770409584045, 0.030049923807382584, 0.036563266068696976, -0.0044714100658893585, 0.026084069162607193 },
};
static const float tensor_neuralnet_small_dense_BiasAdd_ReadVariableOp_0[40] = {
-0.04102564975619316, -0.027751851826906204, 0.013597730547189713, -0.04376528412103653, 0.03348224237561226, 0.003025747835636139, 0.04415607824921608, -0.008548937737941742, 0.0387316457927227, 0.018645796924829483, -0.013073515146970749, 0.01797301694750786, 0.04094792529940605, 0.015021715313196182, -0.02557060681283474, -0.011640191078186035, -0.016813479363918304, 0.015292536467313766, 0.03610844537615776, 0.04066803678870201, -0.008967399597167969, 0.024730253964662552, 0.028513792902231216, -0.001958787441253662, 0.005776513367891312, -0.016060102730989456, -0.03916146606206894, -0.01480954885482788, 0.021971236914396286, -0.0009702928364276886, 0.023847166448831558, 0.028739456087350845, 0.002755008637905121, -0.024262560531497, 0.010251510888338089, -0.039851438254117966, -0.030067909508943558, 0.022897008806467056, -0.04604342207312584, 0.006326306611299515 
};
static const float tensor_neuralnet_small_dense_1_MatMul_ReadVariableOp_0[40][40] = {
{
-0.012768089771270752, 0.022566746920347214, -0.001620076596736908, 0.04166937991976738, -0.005234099924564362, -0.03829903528094292, -0.02465897798538208, -0.03333858400583267, -0.007075238972902298, 0.007952310144901276, 0.012865174561738968, -0.016064990311861038, 0.020530913025140762, 0.037966255098581314, -0.008365355432033539, -0.022356105968356133, 0.03020855411887169, -0.04099499061703682, -0.023289311677217484, 0.020005349069833755, 0.012087177485227585, 0.011758517473936081, -0.013939738273620605, -0.0011367425322532654, 0.04181407764554024, 0.023443248122930527, -0.02297271601855755, 0.014462936669588089, 0.005261491984128952, -0.022015511989593506, -0.02572054974734783, -0.03115307167172432, -0.04385075718164444, 0.01834103837609291, -0.041881777346134186, 0.015400517731904984, -0.02621471881866455, 0.015143360942602158, 0.02694641426205635, 0.018549147993326187 },
{
-0.008475791662931442, -0.029178692027926445, -0.030493319034576416, -0.040859438478946686, 0.021515872329473495, 0.034462545067071915, 0.00535888597369194, -0.0323161855340004, 0.041067901998758316, 0.0025215744972229004, 0.028000835329294205, 0.034721922129392624, 0.03450385108590126, 0.023312661796808243, -0.035826824605464935, -0.045849572867155075, -0.01923387125134468, 0.02651834860444069, 0.030649032443761826, -0.02595311403274536, 0.004072856158018112, 0.044896792620420456, -0.04929875209927559, 0.0334407202899456, -0.014782845973968506, -0.048147108405828476, 0.028155412524938583, -0.0484333299100399, -0.04329505190253258, -0.04277573898434639, 0.04174907132983208, -0.008464597165584564, 0.02951674535870552, 0.03480503335595131, -0.04850330576300621, -0.008593045175075531, 0.01824634149670601, -0.04153256490826607, 0.021616529673337936, 0.017105426639318466 },
{
0.016520407050848007, -0.04830484464764595, -0.03674124553799629, 0.01676565781235695, 0.0067004188895225525, 0.029617760330438614, -0.038047779351472855, -0.04959290102124214, -0.014763426035642624, -0.027634238824248314, -0.01807652786374092, 0.03409745916724205, 0.025488201528787613, -0.045409537851810455, -0.041912876069545746, -0.049799323081970215, -0.0195480827242136, -0.011660169810056686, -0.0010563135147094727, -0.0425320640206337, -0.03574153035879135, 0.04899196699261665, 0.029171135276556015, -0.011709652841091156, 0.02876262739300728, -0.014670561999082565, 0.014039073139429092, 0.048516396433115005, -0.012209165841341019, -0.046826254576444626, 0.03422308340668678, 0.02132483944296837, -0.04678086191415787, 0.040155354887247086, -0.022534204646945, 0.006883025169372559, -0.03761845827102661, 0.03561000898480415, -0.04856609180569649, -0.04701986536383629 },
{
0.04691750183701515, 0.008746515959501266, -0.047780491411685944, -0.017996467649936676, -0.030162418261170387, 0.008784137666225433, -0.0007467977702617645, -0.002879321575164795, 0.022847983986139297, 0.04323837533593178, 0.03847172483801842, 0.025051679462194443, 0.034717295318841934, 0.01934916153550148, 0.03355083242058754, -0.005827952176332474, 0.007360838353633881, -0.01026524230837822, 0.005784403532743454, -0.02126340940594673, 0.01859268918633461, 0.033510927110910416, 0.022053491324186325, 0.004592739045619965, -0.04857802391052246, 0.04059227928519249, -0.049919165670871735, 0.03195004537701607, -0.0451970100402832, 0.040396798402071, 0.01922612264752388, 0.0031756050884723663, -0.04536571726202965, -0.0004611387848854065, 0.03703576698899269, 0.04271802678704262, -0.03919950872659683, -0.02615663968026638, 0.041043732315301895, 0.010839104652404785 },
{
0.002261720597743988, 0.03169543668627739, -0.018422376364469528, -0.022224009037017822, -0.01694672182202339, -0.016213487833738327, 0.02107841894030571, -0.030823111534118652, -0.029711199924349785, 0.040054429322481155, -0.01089174672961235, -0.006859134882688522, 0.022989142686128616, 0.03648919239640236, -0.03981684520840645, 0.022261206060647964, 0.02561202272772789, -0.037415049970149994, -0.004784226417541504, -0.02771815098822117, -0.022865165024995804, -0.002016257494688034, 0.020648684352636337, -0.045400526374578476, -0.013581395149230957, 0.01136399433016777, 0.0278361476957798, -0.01361553743481636, -0.022618163377046585, 0.022687364369630814, 0.02028384432196617, -0.0024000629782676697, 0.0035011544823646545, 0.04263443872332573, -0.026992952451109886, 0.028434421867132187, 0.03792581334710121, -0.03344382345676422, 0.03522142395377159, 0.0013945698738098145 },
{
0.025387797504663467, 0.005360852926969528, -0.03702383115887642, -0.0167945995926857, 0.03570273146033287, 0.026723992079496384, -0.0477924607694149, 0.046475354582071304, 0.004262544214725494, 0.031177375465631485, 0.03053213283419609, -0.04312186315655708, 0.011851560324430466, 0.030177127569913864, 0.03559590503573418, -0.01768793910741806, 0.04501447454094887, 0.04146214947104454, -0.0016478672623634338, -0.04760318994522095, -0.006540179252624512, 0.028284873813390732, -0.0395674929022789, -0.0010339617729187012, 0.03720075264573097, -0.033061541616916656, -0.02413318119943142, -0.014655660837888718, 0.005468178540468216, 0.007838986814022064, 0.0028071627020835876, -0.04357588291168213, 0.010286998003721237, 0.003561675548553467, 0.005423165857791901, 0.03066389635205269, -0.01559523493051529, -0.04338876157999039, 0.0017196908593177795, -0.047817982733249664 },
{
-0.03128369152545929, -0.019055938348174095, 0.029705870896577835, 0.005449820309877396, 0.043914224952459335, 0.04570336267352104, 0.03731442615389824, -0.008978009223937988, 0.03724093362689018, 0.04972204938530922, 0.011385463178157806, 0.018608305603265762, 0.02693590149283409, 0.0020964518189430237, 0.045700762420892715, -0.02316223457455635, -0.027368975803256035, 0.009946130216121674, -0.007644284516572952, 0.02024778351187706, 0.016693782061338425, 0.006921838968992233, 0.012597773224115372, 0.04857886955142021, -0.04718724638223648, -0.02128063514828682, -0.017265021800994873, -0.019801342859864235, 0.03561044856905937, 0.04129195585846901, 0.0029044263064861298, 0.03749341145157814, 0.013371232897043228, -0.03656632825732231, 0.0481388084590435, -0.0067400820553302765, -0.021385788917541504, -0.0352802649140358, -0.02883005142211914, -0.02051370218396187 },
{
0.04681617394089699, -0.004966139793395996, -0.03150603920221329, -0.017785418778657913, -0.027750898152589798, -0.023795414716005325, -0.026272285729646683, -0.03679182380437851, 0.02493324503302574, -0.018514730036258698, -0.0002316012978553772, -0.011286139488220215, -0.0047991275787353516, -0.00179966539144516, -0.04987245798110962, -0.01191159337759018, 0.021259691566228867, -0.0149606354534626, -0.02740081585943699, -0.008681047707796097, 0.044404540210962296, 0.048375535756349564, -0.02826225757598877, -0.016055524349212646, 0.03485366329550743, 0.03434619680047035, -0.018091093748807907, 0.02694157138466835, -0.01979057863354683, -0.025428378954529762, -0.003964316099882126, 0.02113025262951851, 0.009945858269929886, -0.04478250816464424, -0.007977880537509918, 0.014357004314661026, 0.018528107553720474, 0.01491144672036171, -0.03481724113225937, -0.02782207727432251 },
{
0.04853442683815956, 0.031087782233953476, 0.006220720708370209, -0.002320431172847748, -0.005937147885560989, 0.005085311830043793, 0.03172494098544121, -0.03866952657699585, 0.04499243572354317, 0.02942739799618721, 0.02525191381573677, 0.014432970434427261, 0.030388202518224716, 0.02883094921708107, 0.04633435979485512, -0.0022430047392845154, 0.0012760534882545471, 0.023032572120428085, 0.00857393816113472, -0.008157551288604736, -0.004248179495334625, -0.007365785539150238, 0.02638978883624077, 0.024634968489408493, -0.018464624881744385, 0.039331045001745224, 0.03537353500723839, -0.009705591946840286, -0.043174173682928085, -0.04859514161944389, -0.011321760714054108, 0.011255361139774323, -0.0118333101272583, -0.014013372361660004, -0.022292722016572952, -0.02688596211373806, 0.027265463024377823, -0.028457535430788994, 0.011076807975769043, -0.01388639211654663 },
{
-0.035892046988010406, -0.012476574629545212, -0.04184786230325699, -0.007984984666109085, -0.014859307557344437, 0.007278073579072952, 0.03142572566866875, -0.008618105202913284, 0.029328275471925735, 0.0325247161090374, -0.04940455034375191, 0.03278103098273277, 0.03914988413453102, -0.04074199125170708, 0.03122607246041298, -0.01884150505065918, 0.0017983317375183105, -0.04158947616815567, 0.020051095634698868, 0.026010598987340927, 0.0335233248770237, -0.016052138060331345, 0.0440099872648716, 0.02372094616293907, -0.03466641902923584, -0.041528116911649704, 0.04827604070305824, 0.00785970687866211, 0.004689060151576996, 0.014032747596502304, -0.04060244560241699, -0.03654686361551285, 0.01913788542151451, 0.0356643907725811, 0.03707537427544594, 0.019158724695444107, 0.025082837790250778, -0.0404234305024147, 0.02243128791451454, 0.00866461917757988 },
{
-0.030005013570189476, -0.008604336529970169, 0.04931657388806343, 0.044371236115694046, 0.002530764788389206, 0.04398519918322563, 0.007335256785154343, -0.03334765508770943, 0.017756011337041855, -0.04845205694437027, -0.005461610853672028, -0.006173253059387207, 0.037186507135629654, -0.03263288736343384, 0.04440278932452202, -0.0365949384868145, 0.024392854422330856, 0.04817534610629082, -0.02585303783416748, 0.04911797121167183, 0.04700588062405586, 0.03358859196305275, 0.009335614740848541, 0.01819917932152748, 0.01987982913851738, 0.04297235980629921, 0.040528107434511185, -0.002886127680540085, 0.0009665004909038544, -0.03827735036611557, 0.009107600897550583, 0.047964420169591904, -0.022063910961151123, -0.009182702749967575, 0.01676187291741371, 0.005854606628417969, 0.0183105506002903, -0.02208157815039158, -0.014266051352024078, 0.02824430540204048 },
{
0.04510286822915077, 0.04409993812441826, -0.04006390646100044, 0.04273802414536476, 0.0340520404279232, -0.04246958717703819, 0.017216715961694717, -0.026041841134428978, -0.02331070974469185, 0.012677732855081558, -0.027680588886141777, -0.025395894423127174, -0.01778240129351616, 0.004961811006069183, 0.023519638925790787, -0.0046980008482933044, 0.03195977583527565, 0.015469241887331009, 0.029330816119909286, -0.016977883875370026, 0.018637780100107193, 0.033341530710458755, -0.025214314460754395, -0.02248976193368435, 0.019480649381875992, 0.028864111751317978, 0.0376720167696476, -0.045101311057806015, -0.049048926681280136, -0.0013878233730793, 0.021403398364782333, 0.01018739864230156, -0.0031029358506202698, 0.041585054248571396, -0.036135315895080566, -0.00029592588543891907, 0.022138122469186783, -0.01860605552792549, -0.03754446655511856, -0.006726838648319244 },
{
0.02936779335141182, 0.03188532963395119, 0.01700439676642418, -0.03358353674411774, -0.025917351245880127, -0.00037533044815063477, -0.04811353608965874, -0.03369119018316269, 0.03216012939810753, -0.03430669382214546, -0.038654912263154984, -0.013805139809846878, -0.04867053031921387, 0.01065671443939209, -0.03731473535299301, -0.04301028326153755, -0.04577493667602539, 0.03321636840701103, -0.042447544634342194, -0.04724137857556343, 0.02431788668036461, 0.03177152946591377, 0.013766851276159286, -0.023703813552856445, 0.01692715659737587, 0.009133853018283844, -0.023381102830171585, 0.0038566365838050842, 0.006070576608181, -0.001958511769771576, -0.021668506786227226, 0.03579378500580788, 0.03862711414694786, 0.022089969366788864, 0.02620870992541313, 0.02032076194882393, -0.0047790780663490295, -0.03136143833398819, -0.023605406284332275, 0.03448987379670143 },
{
-0.015686988830566406, -0.0045799389481544495, -0.040083207190036774, 0.045864228159189224, 0.0202188603579998, 0.029305826872587204, 0.025863561779260635, -0.008013367652893066, 0.005767881870269775, -0.01869039610028267, 0.04966867342591286, 0.011267580091953278, 0.042106594890356064, 0.009977508336305618, -0.04611736536026001, -0.0017841346561908722, -0.04665903002023697, 0.04707993194460869, -0.01617295667529106, 0.007867254316806793, 0.03203462436795235, 0.02099478617310524, 0.005707763135433197, 0.03267284855246544, -0.028537333011627197, 0.03558775410056114, -0.019536113366484642, -0.027746248990297318, -0.005981482565402985, 0.028707649558782578, -0.022983361035585403, 0.023039434105157852, 0.024141822010278702, -0.03273695707321167, 0.01732781156897545, -0.02800978533923626, -0.02976316213607788, 0.04398540034890175, 0.022626135498285294, 0.032609883695840836 },
{
-0.013664651662111282, 0.006093181669712067, -0.034540604799985886, -0.001189161092042923, -0.003091048449277878, 0.00900644063949585, -0.033784426748752594, 0.004032362252473831, -0.015603374689817429, -0.007910370826721191, -0.044592346996068954, 0.0029340162873268127, 0.03516049310564995, -0.04319898039102554, 0.0009475573897361755, -0.04408285766839981, -0.017573677003383636, -0.00405048206448555, 0.04913381114602089, 0.03951170668005943, 0.023719456046819687, -0.04816577583551407, -0.03233518451452255, 0.03563019260764122, 0.024902407079935074, 0.039022017270326614, 0.006226800382137299, 0.015361811965703964, 0.04868823662400246, -0.00932924821972847, 0.03141586855053902, -0.012337137013673782, 0.03453722223639488, -0.046678271144628525, 0.03697465732693672, 0.009380556643009186, -0.02800511196255684, 0.014930319041013718, 0.012374687939882278, 0.030101526528596878 },
{
-0.007676862180233002, 0.00894220918416977, 0.005337309092283249, -0.04453302547335625, -0.0076809413731098175, -0.00781918689608574, -0.048177387565374374, -0.01550077274441719, -0.02124917507171631, 0.024136032909154892, -0.03132186084985733, 0.04480476304888725, 0.00874394178390503, 0.01910163089632988, 0.037494007498025894, 0.048501793295145035, 0.022205520421266556, -0.01837611198425293, 0.01471417024731636, 0.012428142130374908, 0.022043492645025253, 0.04214916005730629, -0.0009502284228801727, 0.04767420515418053, -0.0014839768409729004, -0.01987244002521038, -0.03621720150113106, -0.01902179792523384, -0.034150682389736176, -0.0443318746984005, 0.03422565385699272, 0.03937650844454765, 0.009296048432588577, 0.04909786209464073, 0.0030152425169944763, -0.01609271764755249, -0.03441993147134781, -0.04748333618044853, -0.041915394365787506, 0.02065899595618248 },
{
-0.04755204916000366, -0.02163461409509182, -0.043536581099033356, 0.000863097608089447, -0.01597602292895317, 0.004470217972993851, 0.021671663969755173, -0.03892559930682182, -0.04912177473306656, 0.0042678117752075195, 0.01998741552233696, 0.03794756904244423, -0.02147437445819378, -0.00257723405957222, 0.043065670877695084, -0.0438193678855896, 0.04166707769036293, 0.008696816861629486, 0.0007943995296955109, -0.008503604680299759, -0.025903357192873955, 0.013419974595308304, -0.000948488712310791, 0.03445916250348091, -0.019465148448944092, 0.0065583959221839905, 0.03871910646557808, 0.005066167563199997, -0.04765892028808594, 0.039259206503629684, 0.046725813299417496, 0.030174408107995987, 0.001289617270231247, -0.011527787894010544, 0.007420159876346588, -0.04609788581728935, 0.0028982162475585938, 0.013311397284269333, 0.01629069820046425, 0.01582106575369835 },
{
0.00386655330657959, 0.04480859264731407, -0.02859633043408394, 0.020814184099435806, -0.039014458656311035, -0.04297490045428276, 0.04644293710589409, -0.03661699220538139, 0.03536771610379219, 0.040239084511995316, 0.021783027797937393, -0.03507765382528305, -0.04181431606411934, 0.011437572538852692, 0.00543450191617012, -0.004138372838497162, -0.03984927013516426, 0.030899260193109512, 0.03479856625199318, -0.03185003995895386, -0.023082828149199486, -0.01951625384390354, -0.024199916049838066, -0.0302827600389719, 0.04743390157818794, 0.022670459002256393, 0.025673937052488327, 0.037529218941926956, -0.048149336129426956, 0.031471941620111465, -0.0427483431994915, -0.017360426485538483, -0.009844731539487839, 0.008175920695066452, 0.018802378326654434, -0.032199934124946594, 0.043056439608335495, -0.04340338706970215, 0.019106116145849228, -0.03092440403997898 },
{
0.0009220726788043976, 0.03868849202990532, -0.005286358296871185, 0.0005118846893310547, 0.030007395893335342, 0.03399929031729698, 0.04492250457406044, 0.025649499148130417, -0.01845947653055191, -0.0015376098453998566, 0.02225532755255699, 0.029514063149690628, 0.037986669689416885, -0.030543720349669456, 0.01856929436326027, 0.037644293159246445, 0.04442116245627403, -0.00750042125582695, 0.027190539985895157, -0.049013376235961914, -0.032221078872680664, -0.010420344769954681, -0.04689335823059082, 0.03527183458209038, -0.031377099454402924, -0.005213119089603424, -0.04015660285949707, 0.02655179426074028, 0.0061882734298706055, -0.009491242468357086, 0.027499046176671982, 0.015028808265924454, -0.045251455157995224, 0.0044317953288555145, 0.01492227241396904, -0.04929465055465698, -0.04131808131933212, 0.017073895782232285, -0.009812366217374802, 0.01154034212231636 },
{
0.0025793425738811493, 0.034779082983732224, 0.041868675500154495, 0.00031435489654541016, -0.0210953950881958, 0.04080754891037941, -0.000789988785982132, -0.010976303368806839, 0.038776371628046036, -0.0318853035569191, 0.025217700749635696, -0.002107463777065277, -0.013920225203037262, -0.0062540993094444275, 0.034685444086790085, -0.04900505766272545, 0.031815920025110245, 0.028228390961885452, 0.028476480394601822, -0.0244112741202116, -0.028500044718384743, 0.023946430534124374, 0.041083384305238724, 0.04602411761879921, -0.03546099737286568, -0.026968492195010185, -0.04827312380075455, -0.03177519887685776, 0.001773439347743988, 0.012376286089420319, 0.045080069452524185, -0.006033517420291901, -0.0471871979534626, 0.015438113361597061, 0.035578880459070206, 0.013031784445047379, -0.03830963373184204, -0.0026840679347515106, -0.035147201269865036, -0.04800139740109444 },
{
-0.038089729845523834, -0.027924228459596634, -0.006670854985713959, 0.00849064439535141, -0.013551104813814163, -0.03535426780581474, 0.016637396067380905, 0.02017810568213463, -0.04936490207910538, -0.04013749212026596, 0.026586975902318954, 0.00822979211807251, 0.04601399973034859, -0.0045042261481285095, -0.0334317572414875, -0.04932945966720581, -0.016861476004123688, -0.019864393398165703, -0.0024474263191223145, -0.009169090539216995, -0.025735868141055107, -0.009995140135288239, 0.013179134577512741, 0.040679264813661575, -0.03256654739379883, 0.014649752527475357, -0.001923106610774994, 0.03683534637093544, -0.04459158331155777, 0.02832278236746788, -0.046548616141080856, 0.0030684582889080048, -0.030531620606780052, 0.025558773428201675, 0.03907911852002144, 0.01563699170947075, 0.04753906652331352, 0.031042013317346573, -0.021703004837036133, -0.02299264632165432 },
{
0.03921768441796303, 0.03184499964118004, 0.0029037967324256897, -0.047242309898138046, -0.0015523657202720642, -0.04713832214474678, -0.045997440814971924, -0.008863292634487152, -0.007908511906862259, 0.014913845807313919, 0.03135243430733681, -0.012791849672794342, -0.039205849170684814, 0.03431326523423195, -0.0023034922778606415, 0.028461400419473648, -0.04888799414038658, -0.011614777147769928, -0.03457151725888252, -0.04631580039858818, -0.014403332024812698, -0.022341275587677956, -0.0032230839133262634, -0.030041897669434547, -0.04243021085858345, 0.01987570896744728, -0.04974588379263878, 0.04141462966799736, -0.013491712510585785, -0.014469347894191742, 0.0051871053874492645, 0.0028444528579711914, -0.013595841825008392, 0.04474614933133125, -0.0490725040435791, -0.03504681587219238, 0.04102827236056328, -0.001951552927494049, -0.01884298399090767, 0.02467956766486168 },
{
0.01766330376267433, 0.030255641788244247, 0.018741797655820847, -0.003124009817838669, 0.03923869505524635, 0.02273343876004219, 0.029134418815374374, -0.02274646796286106, -0.00637141615152359, -0.03468479961156845, 0.00667262077331543, 0.025152217596769333, 0.005863416939973831, 0.025371301919221878, 0.039296019822359085, -0.024512410163879395, -0.04228031635284424, -0.010957181453704834, 0.02736658975481987, -0.015139579772949219, -0.02637854777276516, 0.03554392233490944, 0.018571529537439346, 0.0427069328725338, 0.0016074180603027344, -0.037165701389312744, 0.03982981666922569, 0.011610768735408783, -0.046360697597265244, -0.047489892691373825, 0.015004705637693405, 0.031134653836488724, -0.018762409687042236, 0.01257462427020073, 0.02457929030060768, -0.047714877873659134, 0.04074854031205177, 0.013958338648080826, 0.0013793706893920898, 0.0006646402180194855 },
{
-0.04091527312994003, -0.014248929917812347, -0.023629415780305862, 0.019200649112462997, 0.038367900997400284, -0.02159757725894451, 0.04432804509997368, 0.02610762044787407, 0.036693181842565536, 0.04823235049843788, 0.009724974632263184, 0.011693917214870453, -0.013666391372680664, -0.005070459097623825, 0.016317609697580338, 0.03586618974804878, 0.005281258374452591, -0.04824119806289673, -0.010239243507385254, -0.03261168301105499, -0.04916876554489136, -0.010519254952669144, -0.0011040940880775452, 0.026336517184972763, 0.04022744670510292, -0.00028961896896362305, 0.017420854419469833, -0.013980161398649216, -0.028253281489014626, -0.02516118250787258, -0.04616506025195122, -0.039912424981594086, -0.000878799706697464, 0.04129907116293907, 0.04299570247530937, -0.04732535034418106, 0.015589263290166855, 0.005546212196350098, -0.01198803260922432, -0.02429295890033245 },
{
-0.008011531084775925, -0.03975355625152588, -0.021844804286956787, -0.03773166984319687, -0.004352342337369919, 0.011775445193052292, 0.007331967353820801, 0.0032178759574890137, -0.047419335693120956, -0.02043738402426243, 0.02903764322400093, -0.003010176122188568, 0.016974162310361862, -0.03454696014523506, -0.032619133591651917, 0.012590829282999039, -0.030969882383942604, 0.04387612268328667, -0.04432643577456474, 0.035582493990659714, 0.025106657296419144, -0.023469461128115654, -0.04582136869430542, -0.008767105638980865, -0.03570643812417984, -0.024374842643737793, -0.007454346865415573, 0.037316177040338516, -0.03751111030578613, -0.01815330982208252, -0.033969976007938385, -0.014156736433506012, -0.036306679248809814, 0.02534003183245659, 0.020414579659700394, -0.008867871016263962, 0.03123757615685463, -0.02381044626235962, -0.003333020955324173, 0.031446803361177444 },
{
-0.04055309295654297, 0.03773726150393486, -0.04541078954935074, -0.03822898864746094, -0.004234183579683304, 0.046559322625398636, -0.01713106781244278, 0.00034873560070991516, -0.0181746706366539, 0.04500521346926689, 0.005468405783176422, 0.043221477419137955, 0.015708576887845993, -0.016459930688142776, 0.011646520346403122, -0.03520382568240166, 0.005784831941127777, -0.0012277737259864807, 0.04417157545685768, 0.031151365488767624, -0.00782085582613945, 0.013561177998781204, 0.027982164174318314, -0.0443161241710186, -0.015861235558986664, 0.035818565636873245, 0.014449048787355423, -0.02264883555471897, 0.03585398569703102, -0.03434262424707413, -0.017881978303194046, -0.01836336776614189, -0.029534650966525078, 0.026284169405698776, -0.007461048662662506, -0.022398008033633232, -0.021609092131257057, -0.0036756396293640137, 0.038176264613866806, -0.010242737829685211 },
{
0.010085619986057281, -0.006920088082551956, -0.0256864782422781, -0.03893238306045532, -0.006209112703800201, -0.018628813326358795, 0.017739925533533096, 0.037531737238168716, -0.031666770577430725, 0.02529824897646904, 0.010954547673463821, 0.0298503078520298, 0.012816790491342545, 0.025342319160699844, -0.02304825745522976, 0.005225609987974167, 0.02428629621863365, -0.0017598755657672882, 0.044090066105127335, -0.007525026798248291, 0.032444898039102554, 0.0011739954352378845, 0.032288361340761185, 0.03258795663714409, 0.04869725927710533, -0.008347798138856888, -0.048206355422735214, 0.03908563777804375, 0.025456320494413376, -0.006435800343751907, 0.046026501804590225, -0.04373662546277046, -0.0027789846062660217, -0.023177409544587135, 0.031187262386083603, 0.015590082854032516, -0.02437574975192547, 0.04559577628970146, 0.023266557604074478, -0.0499446876347065 },
{
0.04389118030667305, 0.02290179952979088, 0.034572865813970566, -0.023078465834259987, 0.04465395584702492, 0.031399618834257126, 0.016188252717256546, -0.008192062377929688, 0.022990789264440536, 0.013223875313997269, -0.014621637761592865, -0.016152560710906982, -0.012309886515140533, 0.030250024050474167, 0.03561354801058769, 0.04279332235455513, 0.027169179171323776, -0.0006412379443645477, 0.0008109323680400848, 0.03052956983447075, 0.004615675657987595, -0.03853727504611015, -0.030153144150972366, -0.045174408704042435, -0.005593299865722656, 0.031392622739076614, -0.04083292558789253, -0.0005908235907554626, 0.002555202692747116, -0.00024840980768203735, 0.01466730609536171, 0.04405229166150093, 0.03519817814230919, -0.017089735716581345, 0.021098043769598007, -0.02023395337164402, -0.04022468253970146, 0.014191482216119766, 0.0012355335056781769, -0.019756579771637917 },
{
-0.018346238881349564, -0.02526651695370674, 0.005330752581357956, -0.005850650370121002, -0.024588262662291527, -0.019785666838288307, 0.04464465752243996, 0.0364331491291523, 0.0034678205847740173, -0.026815736666321754, 0.018044117838144302, -0.03885180875658989, 0.03492392227053642, -0.041105616837739944, 0.0060582756996154785, -0.03159995377063751, -0.005024157464504242, -0.009619034826755524, -0.016605425626039505, 0.03067297860980034, -0.04273325204849243, 0.032947029918432236, 0.020557906478643417, 0.034831609576940536, -0.023624766618013382, 0.006244063377380371, -0.03627309948205948, -0.025594521313905716, -0.02743992768228054, -0.004831969738006592, 0.005330871790647507, 0.03450411930680275, 0.009801983833312988, 0.039301548153162, -0.039149247109889984, 0.015334177762269974, -0.030900312587618828, -0.0459749698638916, -0.006828177720308304, -0.02311321534216404 },
{
0.010057639330625534, 0.019094381481409073, -0.015042733401060104, -0.026940036565065384, -0.0026463493704795837, -0.0018433816730976105, -0.03753185272216797, 0.03907645121216774, -0.018622171133756638, 0.015245381742715836, -0.03766515105962753, -0.029059171676635742, -0.029507135972380638, 0.04107941314578056, -0.02820676565170288, 0.030949953943490982, -0.04068871587514877, 0.0386585034430027, 0.019806113094091415, 0.008468735963106155, -0.015863429754972458, -0.04467148706316948, 0.011478506028652191, 0.02583569660782814, -0.03607344627380371, 0.004015408456325531, -0.02318793535232544, -0.0476415641605854, -0.012466229498386383, -0.014390252530574799, 0.024244274944067, -0.014407254755496979, -0.024400068446993828, 0.04678938165307045, -0.045565273612737656, -0.03374761343002319, 0.012077581137418747, -0.016140960156917572, -0.025986088439822197, -0.015501044690608978 },
{
-0.03853023052215576, -0.004289161413908005, 0.03367752209305763, -0.03345046192407608, 0.03548334911465645, 0.039164651185274124, 0.0018616430461406708, -0.0179000124335289, -0.01601886749267578, -0.027589857578277588, -0.013400651514530182, 0.030268076807260513, 0.01871505007147789, -0.0004151947796344757, 0.025437261909246445, -0.023303449153900146, 0.028202343732118607, 0.029751326888799667, -0.0038793087005615234, -0.026729082688689232, 0.013289835304021835, -0.03633994981646538, 0.020246360450983047, 0.0059795379638671875, -0.0066879019141197205, 0.039920952171087265, 0.0375383161008358, 0.0009359940886497498, -0.03873983770608902, 0.023336205631494522, 0.021090272814035416, -0.00820784643292427, -0.04579723998904228, -0.031177688390016556, 0.004748355597257614, 0.008419670164585114, 0.004083968698978424, -0.026671862229704857, -0.023088550195097923, 0.03538316860795021 },
{
0.009112976491451263, -0.02720663510262966, -0.01713554933667183, 0.017773795872926712, -0.01106637716293335, -0.026285087689757347, -0.03079676628112793, -0.02776106633245945, -0.014175903052091599, 0.016610566526651382, 0.03609580174088478, -0.030074073001742363, -0.00969298928976059, -0.04833289608359337, -0.036785829812288284, 0.04791926220059395, -0.02488112449645996, 0.0006214752793312073, 0.013437453657388687, -0.014245379716157913, 0.02342468872666359, -0.025438809767365456, -0.028930140659213066, -0.046150483191013336, 0.011375866830348969, 0.04802148416638374, 0.010667525231838226, -0.005631543695926666, 0.03584129735827446, -0.040945589542388916, 0.007469631731510162, 0.025004353374242783, 0.04104813560843468, 0.009780991822481155, -0.018628180027008057, -0.017639458179473877, 0.04734604433178902, 0.009396590292453766, -0.015296805649995804, 0.043408919125795364 },
{
0.04810667410492897, -0.0287069920450449, -0.04932543262839317, -0.0397891029715538, -0.013421893119812012, 0.0022742860019207, 0.0490601547062397, 0.003936171531677246, -0.03764481469988823, -0.029885197058320045, -0.041957952082157135, -0.030522001907229424, 0.04287471994757652, 0.00925467163324356, 0.03138897195458412, -0.04050850868225098, 0.005330037325620651, 0.04208258166909218, 0.01756829395890236, -0.047440625727176666, 0.034168291836977005, -0.034164536744356155, -0.022023260593414307, 0.047069136053323746, 0.00034685060381889343, 0.027229297906160355, -0.03748978301882744, -0.01190965250134468, -0.024898041039705276, 0.027351710945367813, 0.01121978834271431, 0.003032732754945755, 0.017577003687620163, 0.02674153819680214, 0.019141558557748795, -0.024515915662050247, 0.029389653354883194, 0.04315159097313881, -0.02308030240237713, 0.036904942244291306 },
{
-0.03204737976193428, -0.04360365867614746, -0.04532675817608833, -0.016793549060821533, -0.028326237574219704, 0.03732169046998024, -0.008075989782810211, -0.030744899064302444, 0.022231902927160263, 0.02408561483025551, -0.016892731189727783, -0.01289273425936699, -0.04355901479721069, 0.03689134493470192, -0.02909339778125286, -0.03351844847202301, -0.04300221428275108, 0.025066900998353958, -0.01512279361486435, -0.0025935880839824677, -0.04234441742300987, -0.030064165592193604, 0.011963892728090286, 0.034368086606264114, 0.025842513889074326, -0.03501324728131294, -0.03414519131183624, -0.03274732828140259, -0.012454114854335785, -0.023166049271821976, 0.004663538187742233, 0.01774505153298378, -0.026045477017760277, -0.027136480435729027, 0.03230936452746391, -0.03449789434671402, 0.04876511171460152, -0.010843254625797272, 0.047840666025877, -0.004591453820466995 },
{
0.04284869506955147, -0.006474386900663376, -0.0018131956458091736, 0.04082072898745537, -0.03368546813726425, 0.014465872198343277, 0.01611104980111122, 0.025144878774881363, -0.03664872795343399, 0.011438895016908646, 0.04394037649035454, -0.04903993755578995, -0.04553854465484619, 0.01723969355225563, -0.0007270947098731995, 0.034195806831121445, 0.020998720079660416, 0.00155571848154068, -0.04177699238061905, 0.02597517892718315, -0.005074977874755859, -0.007070757448673248, 0.0018785372376441956, 0.04826099053025246, -0.023464595898985863, -0.006150353699922562, -0.037176717072725296, -0.029113663360476494, -0.018833016976714134, -0.049546897411346436, 0.01750173792243004, 0.008165180683135986, 0.048047665506601334, 0.03287016227841377, -0.04356541857123375, -0.04716289043426514, -0.03547605127096176, -0.039370059967041016, 0.0031790733337402344, -0.043714988976716995 },
{
0.014886204153299332, -0.009639214724302292, -0.0366339311003685, -0.017090093344449997, -0.0088433139026165, 0.032976750284433365, -0.006491482257843018, -0.014732647687196732, -0.0004901662468910217, -0.008470870554447174, -0.03817951679229736, 0.011523604393005371, 0.03803905472159386, -0.005560159683227539, -0.010509513318538666, 0.013585653156042099, -0.044468820095062256, 0.0410369373857975, -0.034572504460811615, 0.039928022772073746, -0.036657415330410004, 0.005029819905757904, 0.0016272775828838348, 0.018673349171876907, -0.032422617077827454, -0.004733778536319733, -0.04402874782681465, -0.0036883242428302765, 0.045678798109292984, -0.03998000547289848, 0.026514004915952682, -0.028809094801545143, -0.040742695331573486, 0.006811462342739105, -0.009456109255552292, 0.041312504559755325, -0.046131670475006104, -0.027676666155457497, -0.026884067803621292, -0.024683654308319092 },
{
-0.035175979137420654, -0.038109421730041504, 0.004037428647279739, -0.04657341167330742, 0.016667891293764114, -0.02803502045571804, -0.019689857959747314, -0.013177655637264252, 0.04412345960736275, -0.01762174442410469, -0.018463313579559326, 0.012490034103393555, 0.00469052791595459, 0.014133904129266739, 0.015473488718271255, -0.019637692719697952, -0.04869271442294121, 0.03126950189471245, -0.019690383225679398, -0.014389168471097946, 0.04280254617333412, 0.010557033121585846, -0.023183047771453857, -0.029209578409790993, 0.008211910724639893, -0.024526512250304222, -0.035176731646060944, 0.003964684903621674, -0.008216608315706253, -0.028064895421266556, 0.02218102291226387, -0.004843760281801224, -0.042581357061862946, 0.042646292597055435, -0.04867110401391983, -0.0497969388961792, -0.003063581883907318, 0.015157368034124374, 0.019848618656396866, 0.017999064177274704 },
{
0.04174510017037392, 0.02306779846549034, 0.017974842339754105, -0.02557973936200142, -0.022311687469482422, 0.00021513551473617554, -0.012783575803041458, -0.04088996723294258, -0.02671877108514309, 0.009050212800502777, 0.002563752233982086, -0.021098971366882324, -0.012253127992153168, -0.04442852735519409, 0.028455939143896103, 0.0048849210143089294, 0.0456579364836216, 0.017302539199590683, 0.02932567521929741, -0.014894235879182816, -0.03151804208755493, 0.039274681359529495, 0.022990170866250992, 0.036244478076696396, 0.02831551805138588, -0.043496619910001755, -0.03486437723040581, -0.02393564023077488, -0.019044434651732445, 0.011672936379909515, -0.03602442890405655, 0.03217439725995064, -0.02021472528576851, -0.01814873144030571, -0.049150217324495316, -0.022585416212677956, 0.04646081104874611, 0.03813089057803154, -0.03472781181335449, -0.008136548101902008 },
{
0.0326976515352726, 0.026967916637659073, 0.011283326894044876, -0.009685873985290527, -0.010399352759122849, 0.043990183621644974, 0.013824131339788437, 0.027516867965459824, 0.011507701128721237, 0.011704456061124802, 0.04827641323208809, -0.03725064918398857, 0.029534731060266495, 0.03991297259926796, -0.039825666695833206, 0.02548903599381447, 0.01622471585869789, -0.0016528479754924774, -0.038124240934848785, 0.044526662677526474, 0.012945983558893204, 0.005442392081022263, 0.015473399311304092, -0.013345111161470413, 0.0011735446751117706, -0.008613444864749908, -0.040289342403411865, -0.010917507112026215, -0.003641285002231598, -0.0450928695499897, -0.043251097202301025, -0.047393884509801865, -0.04765564203262329, 0.024228718131780624, -0.03254460170865059, -0.020778417587280273, -0.04791586473584175, -0.029361510649323463, -0.042323220521211624, -0.030368899926543236 },
{
-0.002523578703403473, -0.001539122313261032, -0.018371224403381348, -0.013249993324279785, -0.04744457080960274, -0.004837058484554291, 0.01957583799958229, 0.023911166936159134, -0.04617227241396904, -0.044861532747745514, 0.02625301107764244, 0.0005484446883201599, 0.04386414214968681, 0.00609058141708374, -0.004998721182346344, 0.03767699375748634, 0.0031723976135253906, 0.021415088325738907, 0.029379989951848984, -0.0028366073966026306, -0.030080629512667656, -0.046702124178409576, 0.010570526123046875, -0.03625688701868057, 0.03970709815621376, 0.03956678882241249, 0.03531773015856743, -0.046964406967163086, -0.026135718449950218, -0.01627364009618759, -0.03674353286623955, 0.043073032051324844, 0.007125426083803177, -0.021905457600951195, -0.024654651060700417, 0.0378093458712101, -0.0361596941947937, 0.044361259788274765, 0.04786357656121254, 0.020474184304475784 },
};
static const float tensor_neuralnet_small_dense_1_BiasAdd_ReadVariableOp_0[40] = {
0.04121050611138344, 0.001981399953365326, 0.022677067667245865, -0.007669948041439056, -0.005893886089324951, -0.015466045588254929, -0.004254482686519623, -0.044835519045591354, -0.018537353724241257, -0.010508250445127487, 0.027970854192972183, 0.02609553560614586, -0.016693007200956345, 0.02729329839348793, 0.013918232172727585, -0.032336294651031494, -0.008245624601840973, -0.012742854654788971, -0.04967552423477173, -0.002448558807373047, -0.0015452727675437927, -0.03287901729345322, -0.02552555873990059, -0.010844718664884567, 0.04630196467041969, -0.027900803834199905, 0.018324602395296097, -0.0033930055797100067, -0.006521783769130707, 0.04178896173834801, -0.010447822511196136, 0.04287279024720192, 0.015790510922670364, 0.002284873276948929, 0.004768729209899902, 0.021973419934511185, -0.008128322660923004, -0.03945589065551758, -0.013383865356445312, -0.03990659862756729 
};
static const float tensor_neuralnet_small_dense_2_MatMul_ReadVariableOp_0[4][40] = {
{
0.022284474223852158, -0.033578671514987946, -0.008460938930511475, -0.0240532997995615, -0.0005474202334880829, 0.043178047984838486, -0.012209784239530563, 0.015128318220376968, 0.005701936781406403, 0.018191996961832047, 0.02215348556637764, -0.048726607114076614, 0.010798312723636627, -0.044757258147001266, 0.02072257176041603, 0.011996842920780182, -0.04125593975186348, 0.04548824205994606, 0.023995842784643173, -0.026336217299103737, -0.0217368733137846, -0.011616550385951996, -0.01621975749731064, 0.029718052595853806, -0.024284005165100098, 0.022436868399381638, 0.036302436143159866, 0.0009859800338745117, 0.030349109321832657, 0.015011284500360489, 0.0014621242880821228, -0.02471153810620308, 0.0411747582256794, -0.013664234429597855, -0.002045832574367523, -0.006366275250911713, -0.006031084805727005, 0.0047605037689208984, -0.016820013523101807, -0.005182933062314987 },
{
-0.03278195858001709, -0.014516998082399368, 0.04435248300433159, -0.037394262850284576, 0.02432972565293312, -0.030866457149386406, 0.002855636179447174, 0.03507130220532417, 0.003993190824985504, 0.012324035167694092, 0.02217860147356987, -0.02544083632528782, -0.037851788103580475, 0.04647412523627281, -0.034367695450782776, -0.0497317910194397, 0.024899650365114212, 0.03000858798623085, -0.03974268585443497, -0.006896317005157471, -0.022843969985842705, 0.045936573296785355, -0.008300423622131348, 0.014737371355295181, 0.036180365830659866, 0.04958895221352577, 0.026136193424463272, 0.009054828435182571, -0.011676214635372162, -0.009194325655698776, -0.029393469914793968, -0.02538515441119671, -0.030391348525881767, 0.037140730768442154, -0.030901337042450905, 0.006994795054197311, -0.02795262448489666, -0.03781050443649292, -0.011823952198028564, 0.01445898786187172 },
{
-0.04827158525586128, 0.02668323740363121, -0.016725920140743256, -0.034523166716098785, -0.01975010707974434, -0.030322743579745293, -0.035507213324308395, 0.028624381870031357, -0.025427186861634254, 0.049353670328855515, -0.029176509007811546, 0.007678888738155365, 0.03177369758486748, 0.047350335866212845, -0.02545003965497017, -0.020638013258576393, -0.014618564397096634, 0.017759952694177628, 0.010339666157960892, 0.02746710553765297, -0.04585529491305351, 0.03576188161969185, -0.0001908913254737854, 0.04161478206515312, -0.02798560820519924, 0.0015654079616069794, 0.012540269643068314, -0.027890264987945557, -0.01165374368429184, -0.024232184514403343, -0.03926582261919975, -0.0008054263889789581, -0.02532374858856201, -0.040329087525606155, 0.0461689718067646, 0.035575930029153824, -0.02995307557284832, 0.03393479809165001, 0.024818625301122665, 0.00598602369427681 },
{
0.011685214936733246, -0.04388474300503731, 0.01986907795071602, 0.04981161281466484, -0.006112478673458099, -0.01892120949923992, -0.022550558671355247, -0.04485182836651802, 0.024911191314458847, -0.0499354712665081, -0.015337180346250534, 0.00983649492263794, 0.04758081212639809, -0.027807747945189476, 0.023153629153966904, 0.04004884883761406, 0.03256143257021904, 0.04888400807976723, -0.0058588869869709015, 0.022452805191278458, -0.005742955952882767, 0.029955219477415085, -0.03991351276636124, 0.04341774061322212, 0.03928105905652046, 0.028549205511808395, 0.04754108563065529, -0.046524059027433395, -0.03251101076602936, 0.01496342197060585, -0.025961924344301224, 0.012206029146909714, -0.006578780710697174, 0.04321959242224693, -0.006262876093387604, 0.028883639723062515, 0.016653072088956833, 0.021245252341032028, 0.01091458648443222, 0.03130840137600899 },
};
static const float tensor_neuralnet_small_dense_2_BiasAdd_ReadVariableOp_0[4] = {
-0.03162233904004097, 0.026953425258398056, 0.013357076793909073, 0.004753373563289642 
};
static inline void node_neuralnet_small_dense_MatMul( const float tensor_in[10], const float tensor_linear_weight[40][10], const float tensor_linear_bias[40], float tensor_network_output[40] )
{
	// GEMM with M = 1 equals matrix vector multiplication
		for( uint32_t n=0; n<40; n++ ) {
			float psum = tensor_linear_bias[n];
			// tensor_network_output[n] = tensor_linear_bias[n];
			for( uint32_t k=0; k<10; k++ ) {
				psum += tensor_in[k] * tensor_linear_weight[n][k];
				// tensor_network_output[n] += tensor_in[k] * tensor_linear_weight[n][k];
			}
			//TANH:
		 tensor_network_output[n] = tanhf(psum);
		}
}
static inline void node_neuralnet_small_dense_1_MatMul( const float tensor_in[40], const float tensor_linear_weight[40][40], const float tensor_linear_bias[40], float tensor_network_output[40] )
{
	// GEMM with M = 1 equals matrix vector multiplication
		for( uint32_t n=0; n<40; n++ ) {
			float psum = tensor_linear_bias[n];
			// tensor_network_output[n] = tensor_linear_bias[n];
			for( uint32_t k=0; k<40; k++ ) {
				psum += tensor_in[k] * tensor_linear_weight[n][k];
				// tensor_network_output[n] += tensor_in[k] * tensor_linear_weight[n][k];
			}
			//TANH:
		 tensor_network_output[n] = tanhf(psum);
		}
}
static inline void node_neuralnet_small_dense_2_MatMul( const float tensor_in[40], const float tensor_linear_weight[4][40], const float tensor_linear_bias[4], float tensor_network_output[4] )
{
	// GEMM with M = 1 equals matrix vector multiplication
		for( uint32_t n=0; n<4; n++ ) {
			float psum = tensor_linear_bias[n];
			// tensor_network_output[n] = tensor_linear_bias[n];
			for( uint32_t k=0; k<40; k++ ) {
				psum += tensor_in[k] * tensor_linear_weight[n][k];
				// tensor_network_output[n] += tensor_in[k] * tensor_linear_weight[n][k];
			}
			//TANH:
		 tensor_network_output[n] = tanhf(psum);
		}
}
union tensor_union_0 {
float tensor_neuralnet_small_dense_Tanh_0 [40];
};
static union tensor_union_0 tu0;

union tensor_union_1 {
float tensor_neuralnet_small_dense_1_Tanh_0 [40];
};
static union tensor_union_1 tu1;


void entry(const float tensor_dense_input[10],float tensor_dense_2[4]){

	node_neuralnet_small_dense_MatMul(tensor_dense_input, tensor_neuralnet_small_dense_MatMul_ReadVariableOp_0, tensor_neuralnet_small_dense_BiasAdd_ReadVariableOp_0, tu0.tensor_neuralnet_small_dense_Tanh_0);

	node_neuralnet_small_dense_1_MatMul(tu0.tensor_neuralnet_small_dense_Tanh_0, tensor_neuralnet_small_dense_1_MatMul_ReadVariableOp_0, tensor_neuralnet_small_dense_1_BiasAdd_ReadVariableOp_0, tu1.tensor_neuralnet_small_dense_1_Tanh_0);

	node_neuralnet_small_dense_2_MatMul(tu1.tensor_neuralnet_small_dense_1_Tanh_0, tensor_neuralnet_small_dense_2_MatMul_ReadVariableOp_0, tensor_neuralnet_small_dense_2_BiasAdd_ReadVariableOp_0, tensor_dense_2);
}